{"learner":{"attributes":{"best_iteration":"159","best_ntree_limit":"160","scikit_learn":"{\"use_label_encoder\": true, \"n_estimators\": 160, \"objective\": \"binary:logistic\", \"max_depth\": 7, \"learning_rate\": null, \"verbosity\": null, \"booster\": null, \"tree_method\": null, \"gamma\": null, \"min_child_weight\": null, \"max_delta_step\": null, \"subsample\": null, \"colsample_bytree\": null, \"colsample_bylevel\": null, \"colsample_bynode\": null, \"reg_alpha\": null, \"reg_lambda\": null, \"scale_pos_weight\": null, \"base_score\": null, \"missing\": NaN, \"num_parallel_tree\": null, \"random_state\": null, \"n_jobs\": null, \"monotone_constraints\": null, \"interaction_constraints\": null, \"importance_type\": null, \"gpu_id\": null, \"validate_parameters\": null, \"predictor\": null, \"enable_categorical\": false, \"classes_\": [0, 1], \"n_classes_\": 2, \"_le\": {\"classes_\": [0, 1]}, \"_estimator_type\": \"classifier\"}"},"feature_names":[],"feature_types":[],"gradient_booster":{"model":{"gbtree_model_param":{"num_trees":"160","size_leaf_vector":"0"},"tree_info":[0,0,0,0,0,0,0,0,0,0,0,0,0,0,0,0,0,0,0,0,0,0,0,0,0,0,0,0,0,0,0,0,0,0,0,0,0,0,0,0,0,0,0,0,0,0,0,0,0,0,0,0,0,0,0,0,0,0,0,0,0,0,0,0,0,0,0,0,0,0,0,0,0,0,0,0,0,0,0,0,0,0,0,0,0,0,0,0,0,0,0,0,0,0,0,0,0,0,0,0,0,0,0,0,0,0,0,0,0,0,0,0,0,0,0,0,0,0,0,0,0,0,0,0,0,0,0,0,0,0,0,0,0,0,0,0,0,0,0,0,0,0,0,0,0,0,0,0,0,0,0,0,0,0,0,0,0,0,0,0],"trees":[{"base_weights":[3.3052185E-1,1.0245898E0,-1.473962E0,1.5859311E0,5.140098E-1,-1.6599449E0,1.5422192E0,1.2825873E0,1.9786273E0,-6.0610723E-1,1.1129409E0,-2.83084E-1,-1.8338268E0,-4.935065E-1,1.6529412E0,1.5228888E0,-1.0547264E0,5.945946E-1,1.9818937E0,1.4257497E-1,-1.2863206E0,1.3487221E0,-2.2439024E-1,2.5106382E-1,-1.6552668E0,-1.5343945E0,-1.9949193E0,6.086956E-1,-8.965517E-1,1.7805486E0,6.583851E-1,1.9525119E0,1.070988E0,-1.4118577E0,2.59366E-1,-1E0,1.1724138E0,-3.3333334E-1,1.9833925E0,3.488746E-1,-1.5778894E0,-2.8542408E-1,-1.7587118E0,4.771776E-1,1.6704981E0,7.226107E-1,-5.5894476E-1,-3.318584E-1,7.8775513E-1,-1.8361154E0,-0E0,-1.792518E0,3.66782E-1,-1.9973034E0,-9.4736844E-1,1.2941177E0,-8E-1,4E-1,-1.0769231E0,1.4545455E0,1.9442332E0,1.68E0,1.9130434E-1,2.4175824E-1,1.9711939E0,-9.941396E-1,1.7446069E0,1.5384615E-2,-1.7740337E0,-3.2258064E-1,1.1940298E0,1.5384616E-1,1.6E0,5E-1,-1E0,5.7809526E-1,-8.871795E-1,1.8181819E-1,-1.7055656E0,5.1282052E-2,-9.154519E-1,-1.93526E0,-1.4624203E0,1.3692077E0,-5.415778E-1,1.847625E0,-1.1002445E0,-1.2678936E-1,1.8284183E0,-8.3333336E-2,-1.6213334E0,9.6463025E-2,-1.2587413E0,-1.6842106E-1,1.0125945E0,-0E0,-1.9484702E0,7.5555557E-1,-9.714286E-1,-9.100257E-1,-1.8487536E0,-1.6744186E0,1.2234911E0,6.666667E-1,-1.4666667E0,-1.2820513E0,-3.529412E-1,1.7879859E0,7.338129E-1,6.666667E-1,1.8095238E0,-5.3333336E-1,4.2696628E-1,8.77193E-1,-7.368421E-1,7.777778E-1,1.9811393E0,5.9210528E-2,-1.4941084E0,1.8055556E0,5.285714E-1,2.2018349E-1,-9.5652175E-1,-1.8133874E0,-7.4074075E-2,1.0404624E-1,-1.8333334E0,3.0769232E-1,1.3571428E0,2.2222222E-1,-0E0,1.189466E0,2.82693E-1,-1.1175617E0,8.210526E-1,-1.5E0,1E0,-1.3195021E0,-1.975E0,3.4188035E-1,-7.1549296E-1,-1.6319019E0,-6.86907E-1,-7.39726E-1,-1.9667459E0,-1.2978903E0,-1.9485861E0,9.9384826E-1,1.8159409E0,3.7184596E-2,-1.5729537E0,1.8978839E0,1.6341463E0,5.152838E-1,-1.7166948E0,1.2440191E-1,-1.52E0,-6.666667E-1,1.9550562E0,5.167653E-1,-3.415463E-1,-5.225225E-1,-1.8009331E0,4.2214534E-1,-1.8397626E-1,-8.235294E-1,-1.4146341E0,-1.6923077E0,7.1428575E-2,8.8073397E-1,1.5833334E0,-9.3333334E-1,4.516129E-1,1.4E0,2.0689656E-1,1.5384616E-1,-1.3846154E0,-5.833333E-1,-1.7714286E0,-1.615198E0,-1.9080944E0,-7.234042E-1,-1.8511628E0,7.3224044E-1,1.9203187E0,-0E0,1E0,-1.6521739E0,-5.4545456E-1,-1.3939394E0,-4E-1,6.666667E-1,-1E0,1.8181819E-1,1.8943397E0,1.1111112E0,5.3061223E-1,1E0,-0E0,1.0526316E-1,-1.2E0,8.196721E-1,-3.75E-1],"categories":[],"categories_nodes":[],"categories_segments":[],"categories_sizes":[],"default_left":[true,true,true,true,true,true,true,true,true,true,true,true,true,true,true,true,true,true,true,true,true,true,true,true,true,true,true,true,true,true,true,true,true,true,true,false,true,true,false,true,true,true,true,true,true,true,true,true,true,true,true,true,true,false,true,false,false,false,true,true,false,true,true,true,true,true,true,true,true,true,true,true,false,false,false,true,true,true,true,true,true,true,true,true,true,true,true,true,true,true,true,true,true,true,true,true,false,true,true,true,true,true,true,true,true,true,true,true,true,true,false,true,true,false,false,false,false,false,false,false,false,false,false,false,false,false,false,false,false,false,false,false,false,false,false,false,false,false,false,false,false,false,false,false,false,false,false,false,false,false,false,false,false,false,false,false,false,false,false,false,false,false,false,false,false,false,false,false,false,false,false,false,false,false,false,false,false,false,false,false,false,false,false,false,false,false,false,false,false,false,false,false,false,false,false,false,false,false,false,false,false,false,false],"id":0,"left_children":[1,3,5,7,9,11,13,15,17,19,21,23,25,27,29,31,33,35,37,39,41,43,45,47,49,51,53,55,57,59,61,63,65,67,69,-1,71,73,-1,75,77,79,81,83,85,87,89,91,93,95,97,99,101,-1,103,-1,-1,-1,105,107,-1,109,111,113,115,117,119,121,123,125,127,129,-1,-1,-1,131,133,135,137,139,141,143,145,147,149,151,153,155,157,159,161,163,165,167,169,171,-1,173,175,177,179,181,183,185,187,189,191,193,195,197,-1,199,201,-1,-1,-1,-1,-1,-1,-1,-1,-1,-1,-1,-1,-1,-1,-1,-1,-1,-1,-1,-1,-1,-1,-1,-1,-1,-1,-1,-1,-1,-1,-1,-1,-1,-1,-1,-1,-1,-1,-1,-1,-1,-1,-1,-1,-1,-1,-1,-1,-1,-1,-1,-1,-1,-1,-1,-1,-1,-1,-1,-1,-1,-1,-1,-1,-1,-1,-1,-1,-1,-1,-1,-1,-1,-1,-1,-1,-1,-1,-1,-1,-1,-1,-1,-1,-1,-1,-1,-1,-1,-1],"loss_changes":[2.776923E4,4.5885938E3,3.4576406E3,9.0597656E2,5.627285E3,1.388544E3,8.1565186E1,2.4199746E3,1.3838867E1,1.4886335E3,1.7235918E3,4.7811475E2,2.4541602E2,9.097296E0,4.1978027E1,7.560039E2,1.8902625E2,9.695247E0,1.2160156E1,4.9470337E2,7.236138E2,1.302207E3,2.6019913E2,1.4730058E2,5.4706665E1,8.870542E2,6.4648438E0,6.5872126E0,3.8217506E0,1.3220581E1,1.8884968E1,6.346045E1,2.6521445E3,1.6350098E2,4.7570618E1,0E0,2.9114065E0,2.1666667E0,0E0,3.529743E2,3.38425E1,1.0447003E2,5.1585205E1,1.1405544E3,1.6672266E3,2.0170587E2,3.0631973E2,8.984428E1,5.2842117E1,3.3987366E1,1.4679365E1,7.724951E1,3.8108258E2,0E0,8.9403515E0,0E0,0E0,0E0,1.4781284E0,2.3801529E1,0E0,4.342842E-1,5.137339E0,1.4793137E1,2.1944336E1,2.4721533E2,1.05549805E2,1.3148556E1,1.674115E1,3.515638E1,4.425621E0,3.4188032E-2,0E0,0E0,0E0,1.8929407E2,7.76591E1,1.6636364E1,1.1878601E1,7.193808E1,2.6960602E1,2.2965576E1,2.8866577E1,1.1037683E2,3.5000375E2,3.111914E1,2.045447E2,4.297199E1,3.0767822E1,6.525687E1,3.606137E1,1.428012E1,3.6860275E0,1.7482302E1,1.3544205E1,4.847312E0,0E0,3.6881227E0,4.2813187E0,2.6334152E1,1.7627441E1,9.502441E0,5.1053955E1,6.666666E-1,3.805008E-1,4.046631E-1,3.4705882E0,1.1741241E1,2.0746174E0,6.666666E-1,0E0,3.319298E0,7.314722E0,0E0,0E0,0E0,0E0,0E0,0E0,0E0,0E0,0E0,0E0,0E0,0E0,0E0,0E0,0E0,0E0,0E0,0E0,0E0,0E0,0E0,0E0,0E0,0E0,0E0,0E0,0E0,0E0,0E0,0E0,0E0,0E0,0E0,0E0,0E0,0E0,0E0,0E0,0E0,0E0,0E0,0E0,0E0,0E0,0E0,0E0,0E0,0E0,0E0,0E0,0E0,0E0,0E0,0E0,0E0,0E0,0E0,0E0,0E0,0E0,0E0,0E0,0E0,0E0,0E0,0E0,0E0,0E0,0E0,0E0,0E0,0E0,0E0,0E0,0E0,0E0,0E0,0E0,0E0,0E0,0E0,0E0,0E0,0E0,0E0,0E0,0E0,0E0,0E0,0E0],"parents":[2147483647,0,0,1,1,2,2,3,3,4,4,5,5,6,6,7,7,8,8,9,9,10,10,11,11,12,12,13,13,14,14,15,15,16,16,17,17,18,18,19,19,20,20,21,21,22,22,23,23,24,24,25,25,26,26,27,27,28,28,29,29,30,30,31,31,32,32,33,33,34,34,36,36,37,37,39,39,40,40,41,41,42,42,43,43,44,44,45,45,46,46,47,47,48,48,49,49,50,50,51,51,52,52,54,54,58,58,59,59,61,61,62,62,63,63,64,64,65,65,66,66,67,67,68,68,69,69,70,70,71,71,75,75,76,76,77,77,78,78,79,79,80,80,81,81,82,82,83,83,84,84,85,85,86,86,87,87,88,88,89,89,90,90,91,91,92,92,93,93,94,94,95,95,97,97,98,98,99,99,100,100,101,101,102,102,103,103,104,104,105,105,106,106,107,107,108,108,109,109,111,111,112,112],"right_children":[2,4,6,8,10,12,14,16,18,20,22,24,26,28,30,32,34,36,38,40,42,44,46,48,50,52,54,56,58,60,62,64,66,68,70,-1,72,74,-1,76,78,80,82,84,86,88,90,92,94,96,98,100,102,-1,104,-1,-1,-1,106,108,-1,110,112,114,116,118,120,122,124,126,128,130,-1,-1,-1,132,134,136,138,140,142,144,146,148,150,152,154,156,158,160,162,164,166,168,170,172,-1,174,176,178,180,182,184,186,188,190,192,194,196,198,-1,200,202,-1,-1,-1,-1,-1,-1,-1,-1,-1,-1,-1,-1,-1,-1,-1,-1,-1,-1,-1,-1,-1,-1,-1,-1,-1,-1,-1,-1,-1,-1,-1,-1,-1,-1,-1,-1,-1,-1,-1,-1,-1,-1,-1,-1,-1,-1,-1,-1,-1,-1,-1,-1,-1,-1,-1,-1,-1,-1,-1,-1,-1,-1,-1,-1,-1,-1,-1,-1,-1,-1,-1,-1,-1,-1,-1,-1,-1,-1,-1,-1,-1,-1,-1,-1,-1,-1,-1,-1,-1,-1],"split_conditions":[1.85E1,3.5E0,3.05E1,2.5E0,1.45E1,5E-1,1.15E1,1.65E1,3.5E0,1.45E1,1.25E1,2.8E1,2.75E1,1.15E1,1.65E1,3.5E0,1.25E1,1.8E1,5E-1,5E-1,5E-1,9.5E0,4.5E0,1.15E1,3.05E1,1.15E1,2.85E1,4E0,5E-1,1.45E1,1.1E1,2.5E0,1.45E1,1.1E1,2.25E1,-3E-1,1.5E0,1.15E1,5.950178E-1,1.55E1,3.5E0,2.5E0,1.05E1,1.5E0,2.65E1,3.5E0,5E-1,2.65E1,2.05E1,1.95E1,1.5E0,2.35E1,2.05E1,-5.99191E-1,9.5E0,3.8823533E-1,-2.4000001E-1,1.20000005E-1,1.15E1,3.25E1,5.8326995E-1,3.25E1,5E-1,1.45E1,2E0,5E-1,1.55E1,1.5E1,3.05E1,4.5E0,1.45E1,1.85E1,4.8000002E-1,1.5E-1,-3E-1,4.5E0,1.65E1,9.5E0,2.35E1,1.05E1,8.5E0,5.5E0,5E-1,2.55E1,5E-1,1.05E1,5E-1,5E-1,1.55E1,1.35E1,1.65E1,4.5E0,5E-1,1.35E1,2.25E1,1.25E1,-5.845411E-1,1.5E0,1.95E1,9.5E0,5E-1,1.7E1,2.15E1,9E0,1.85E1,1.85E1,1.45E1,5E-1,1E0,8E0,5.4285717E-1,1.35E1,1.35E1,2.631579E-1,-2.2105263E-1,2.3333335E-1,5.943418E-1,1.7763158E-2,-4.4823256E-1,5.416667E-1,1.5857144E-1,6.605505E-2,-2.8695655E-1,-5.4401624E-1,-2.2222223E-2,3.1213874E-2,-5.5E-1,9.23077E-2,4.0714285E-1,6.666667E-2,-0E0,3.568398E-1,8.48079E-2,-3.3526853E-1,2.4631579E-1,-4.5000002E-1,3E-1,-3.9585066E-1,-5.9250003E-1,1.0256411E-1,-2.146479E-1,-4.895706E-1,-2.060721E-1,-2.2191781E-1,-5.9002376E-1,-3.893671E-1,-5.8457583E-1,2.981545E-1,5.447823E-1,1.1155379E-2,-4.7188613E-1,5.693652E-1,4.902439E-1,1.5458515E-1,-5.1500845E-1,3.7320577E-2,-4.56E-1,-2.0000002E-1,5.8651686E-1,1.550296E-1,-1.0246389E-1,-1.5675676E-1,-5.4028E-1,1.2664361E-1,-5.519288E-2,-2.4705884E-1,-4.2439026E-1,-5.0769234E-1,2.1428574E-2,2.642202E-1,4.7500002E-1,-2.8E-1,1.3548388E-1,4.2000002E-1,6.206897E-2,4.615385E-2,-4.1538465E-1,-1.75E-1,-5.314286E-1,-4.8455942E-1,-5.7242835E-1,-2.1702127E-1,-5.553489E-1,2.1967214E-1,5.7609564E-1,-0E0,3E-1,-4.9565217E-1,-1.6363637E-1,-4.1818184E-1,-1.20000005E-1,2.0000002E-1,-3E-1,5.454546E-2,5.683019E-1,3.3333337E-1,1.5918368E-1,3E-1,-0E0,3.157895E-2,-3.6E-1,2.4590164E-1,-1.12500004E-1],"split_indices":[28,29,28,29,29,23,29,27,28,27,28,29,29,27,29,28,28,26,26,17,22,28,27,29,29,29,28,24,26,29,27,28,28,28,27,0,22,28,0,28,25,23,29,28,29,27,21,28,28,28,24,28,28,0,23,0,0,0,24,28,0,28,25,26,27,23,28,23,27,21,28,24,0,0,0,25,28,28,24,28,29,29,19,29,21,28,22,21,29,28,29,25,24,29,27,26,0,26,27,29,21,29,27,22,24,27,27,25,24,25,0,27,24,0,0,0,0,0,0,0,0,0,0,0,0,0,0,0,0,0,0,0,0,0,0,0,0,0,0,0,0,0,0,0,0,0,0,0,0,0,0,0,0,0,0,0,0,0,0,0,0,0,0,0,0,0,0,0,0,0,0,0,0,0,0,0,0,0,0,0,0,0,0,0,0,0,0,0,0,0,0,0,0,0,0,0,0,0,0,0,0,0,0],"split_type":[0,0,0,0,0,0,0,0,0,0,0,0,0,0,0,0,0,0,0,0,0,0,0,0,0,0,0,0,0,0,0,0,0,0,0,0,0,0,0,0,0,0,0,0,0,0,0,0,0,0,0,0,0,0,0,0,0,0,0,0,0,0,0,0,0,0,0,0,0,0,0,0,0,0,0,0,0,0,0,0,0,0,0,0,0,0,0,0,0,0,0,0,0,0,0,0,0,0,0,0,0,0,0,0,0,0,0,0,0,0,0,0,0,0,0,0,0,0,0,0,0,0,0,0,0,0,0,0,0,0,0,0,0,0,0,0,0,0,0,0,0,0,0,0,0,0,0,0,0,0,0,0,0,0,0,0,0,0,0,0,0,0,0,0,0,0,0,0,0,0,0,0,0,0,0,0,0,0,0,0,0,0,0,0,0,0,0,0,0,0,0,0,0,0,0,0,0,0,0,0,0,0,0],"sum_hessian":[2.217E4,1.601175E4,6.15825E3,7.62575E3,8.386E3,5.801E3,3.5725E2,4.30475E3,3.321E3,2.92175E3,5.46425E3,6.5075E2,5.15025E3,1.825E1,3.39E2,3.90375E3,4.01E2,8.25E0,3.31275E3,1.39125E3,1.5305E3,4.64525E3,8.19E2,4.69E2,1.8175E2,1.80525E3,3.345E3,4.75E0,1.35E1,2.9975E2,3.925E1,1.9995E3,1.90425E3,3.1525E2,8.575E1,2E0,6.25E0,2E0,3.31075E3,1.243E3,1.4825E2,4.9125E2,1.03925E3,1.25325E3,3.392E3,2.135E2,6.055E2,2.25E2,2.44E2,1.6375E2,1.8E1,1.5895E3,2.1575E2,3.3365E3,8.5E0,3.25E0,1.5E0,1.5E0,1.2E1,1.035E2,1.9625E2,1.15E1,2.775E1,2.175E1,1.97775E3,4.6825E2,1.436E3,6.4E1,2.5125E2,5.325E1,3.25E1,2.25E0,4E0,1E0,1E0,1.049E3,1.94E2,1E1,1.3825E2,3.2075E2,1.705E2,6.4775E2,3.915E2,6.68E2,5.8525E2,3.1885E3,2.035E2,1.2125E2,9.225E1,4.19E2,1.865E2,1.545E2,7.05E1,4.65E1,1.975E2,9.5E0,1.5425E2,1.025E1,7.75E0,9.625E1,1.49325E3,6.35E1,1.5225E2,2E0,6.5E0,8.75E0,3.25E0,6.975E1,3.375E1,2E0,9.5E0,6.5E0,2.125E1,1.325E1,8.5E0,1.7E1,1.96075E3,1.51E2,3.1725E2,1.367E3,6.9E1,5.35E1,1.05E1,2.455E2,5.75E0,4.225E1,1.1E1,5.5E0,2.7E1,1.25E0,1E0,3.4075E2,7.0825E2,1.7125E2,2.275E1,3E0,7E0,5.925E1,7.9E1,2.33E2,8.775E1,3.975E1,1.3075E2,1.725E1,6.305E2,2.9525E2,9.625E1,3.6475E2,3.0325E2,3.755E2,2.0975E2,2.5745E3,6.14E2,5.625E1,1.4725E2,1.035E2,1.775E1,4.25E0,8.8E1,1.2575E2,2.9325E2,2.675E1,1.5975E2,7.125E1,8.325E1,2.025E1,5.025E1,5.5E0,4.1E1,1.625E2,3.5E1,2.75E0,6.75E0,4E0,6.25E0,2.25E0,5.5E0,7.1E1,2.525E1,3.0825E2,1.185E3,1.075E1,5.275E1,9.05E1,6.175E1,1E0,1E0,4.75E0,1.75E0,7.25E0,1.5E0,1.25E0,2E0,4.5E0,6.525E1,1.025E1,2.35E1,1E0,1E0,3.75E0,2.75E0,1.425E1,7E0],"tree_param":{"num_deleted":"0","num_feature":"30","num_nodes":"203","size_leaf_vector":"0"}},{"base_weights":[2.4973874E-1,7.7250737E-1,-1.1264197E0,1.2146425E0,3.8154086E-1,-1.2695827E0,1.1712798E0,9.7518426E-1,1.5296422E0,-4.4606787E-1,8.3381563E-1,-2.0992523E-1,-1.4101503E0,-3.7649328E-1,1.2588404E0,1.1605844E0,-7.8642243E-1,4.5959324E-1,1.5323032E0,1.00528106E-1,-9.5882285E-1,1.0162027E0,-1.6296513E-1,1.7835867E-1,-1.2654023E0,-1.1649976E0,-1.5445135E0,4.6569082E-1,-6.8428737E-1,1.3618892E0,4.9262342E-1,1.5073484E0,8.049257E-1,-1.059872E0,1.8542027E-1,-8.135085E-1,9.296907E-1,-2.8663644E-1,1.5335796E0,2.921361E-1,-9.285186E-1,-2.0470235E-1,-1.3366151E0,3.4798577E-1,1.2733172E0,5.0487256E-1,-4.184025E-1,-2.3943064E-1,5.6615263E-1,-1.4023559E0,1.00629605E-1,-1.3649837E0,2.7059925E-1,-1.5464573E0,-7.2988856E-1,1.0298512E0,-6.6235536E-1,3.287948E-1,-8.3020765E-1,1.0953833E0,1.499887E0,1.3265774E0,1.2879395E-1,1.7414972E-1,1.5229859E0,-9.2674315E-1,1.2751617E0,7.1045766E-3,-1.3493181E0,-8.9000124E-1,4.9933255E-1,1.2826946E-1,1.2799958E0,4.6526167E-1,-6.1392707E-1,5.8055663E-1,-1.2670621E0,6.176295E-1,-3.8702834E-1,-1.516109E0,-1.1151792E0,1.0113037E0,-3.9046E-1,1.4107476E0,-8.185926E-1,-9.4011046E-2,1.2177962E0,-6.315293E-2,-1.2370539E0,6.82064E-2,-9.277283E-1,-1.3030708E-1,7.326994E-1,-6.2220536E-2,-1.4914287E0,5.960581E-1,-9.554203E-1,-8.68579E-1,-1.4437566E0,-1.2744181E0,9.033599E-1,3.2549137E-1,-1.4060447E0,-3.959613E-1,-1.0908452E0,1.3709589E0,5.355622E-1,7.5820005E-1,1.5099951E0,5.7163376E-1,1.4202935E0,-4.2350608E-1,3.0889115E-1,6.4415586E-1,-5.457768E-1,5.182685E-1,1.5319738E0,3.242421E-1,-1.3978165E0,1.313464E0,-5.9717286E-2,1.5461443E-1,-1.1486584E0,-1.7121603E-1,-1.3989272E0,-7.696377E-2,-1.6137353E0,6.6318715E-1,-1.0219686E0,1.853133E-1,-0E0,5.809598E-1,-5.4834974E-1,-7.8384936E-1,5.948499E-1,-1.4142848E0,1.0627742E0,2.4184448E-1,-1.3556457E0,-2.1897131E-1,9.357743E-1,1.334385E-1,-6.086032E-1,-5.370232E-1,-1.5474211E0,1.6968715E-1,-1.16403E0,7.252343E-1,1.4030105E0,-1.4971492E0,-3.651771E-2,5.696529E-1,1.4241761E0,1.2262027E-1,-1.4315058E0,8.747285E-2,-1.1503528E0,-1.0843911E-1,1.4524567E0,3.7463355E-1,-2.574537E-1,-1.2890939E0,1.4419565E0,2.9859877E-1,-1.295496E-1,-3.4951565E-1,-1.035602E0,1.4688808E-1,-1.1195543E0,6.199719E-1,1.1996735E0,-3.1784338E-1,1.038597E0,-1.5044348E0,-3.5093457E-1,8.81403E-1,-5.5337584E-1,-1.3566599E0,1.0720433E-1,-9.643347E-1,2.2708232E0,-1.3638495E0,-1.5302392E0,-5.313073E-1,-1.4220394E0,5.220177E-1,1.4832923E0,1.0905616E0,-4.348664E-1,-9.665027E-1,2.787984E-1,-1.3525797E0,-3.3980557E-1,1.3728456E-1,1.4592835E0,4.1844487E-1,1.1872241E0,3.048307E-1,9.60928E-1,8.035043E-2,-9.6116763E-1,6.859412E-1,-1.7480062E-1],"categories":[],"categories_nodes":[],"categories_segments":[],"categories_sizes":[],"default_left":[true,true,true,true,true,true,true,true,true,true,true,true,true,true,true,true,true,true,true,true,true,true,true,true,true,true,true,true,true,true,true,true,true,true,true,false,true,false,false,true,true,true,true,true,true,true,true,true,true,true,true,true,true,false,true,false,false,false,true,true,true,true,true,true,true,true,true,true,true,true,true,true,false,true,true,true,true,true,true,true,true,true,true,true,true,true,true,true,true,true,true,true,true,true,true,true,true,true,true,true,true,true,false,true,true,true,true,true,false,false,false,true,true,false,false,false,false,false,false,false,false,false,false,false,false,false,false,false,false,false,false,false,false,false,false,false,false,false,false,false,false,false,false,false,false,false,false,false,false,false,false,false,false,false,false,false,false,false,false,false,false,false,false,false,false,false,false,false,false,false,false,false,false,false,false,false,false,false,false,false,false,false,false,false,false,false,false,false,false,false,false,false,false,false,false,false,false,false,false,false,false,false,false],"id":1,"left_children":[1,3,5,7,9,11,13,15,17,19,21,23,25,27,29,31,33,35,37,39,41,43,45,47,49,51,53,55,57,59,61,63,65,67,69,-1,71,-1,-1,73,75,77,79,81,83,85,87,89,91,93,95,97,99,-1,101,-1,-1,-1,103,105,107,109,111,113,115,117,119,121,123,125,127,129,-1,131,133,135,137,139,141,143,145,147,149,151,153,155,157,159,161,163,165,167,169,171,173,175,177,179,181,183,185,187,-1,189,191,193,195,197,-1,-1,-1,199,201,-1,-1,-1,-1,-1,-1,-1,-1,-1,-1,-1,-1,-1,-1,-1,-1,-1,-1,-1,-1,-1,-1,-1,-1,-1,-1,-1,-1,-1,-1,-1,-1,-1,-1,-1,-1,-1,-1,-1,-1,-1,-1,-1,-1,-1,-1,-1,-1,-1,-1,-1,-1,-1,-1,-1,-1,-1,-1,-1,-1,-1,-1,-1,-1,-1,-1,-1,-1,-1,-1,-1,-1,-1,-1,-1,-1,-1,-1,-1,-1,-1,-1,-1,-1,-1,-1,-1,-1,-1,-1],"loss_changes":[1.49247705E4,2.5983574E3,1.8802017E3,5.306592E2,2.9874429E3,8.005996E2,4.594284E1,1.3108618E3,7.966797E0,7.9064154E2,9.3836646E2,2.5878223E2,1.5456152E2,5.174797E0,2.4419525E1,4.4638965E2,1.018515E2,6.132143E0,7.4902344E0,2.6964603E2,4.1439282E2,7.490781E2,1.3652649E2,7.500311E1,3.1907074E1,4.8403467E2,3.7216797E0,4.2517867E0,2.3609862E0,8.637512E0,1.1734445E1,3.8021973E1,1.4618824E3,9.224954E1,2.9087946E1,0E0,1.808527E0,0E0,0E0,1.8106833E2,1.1041849E2,7.325123E1,3.684375E1,5.948269E2,9.067495E2,9.4698364E1,1.681785E2,4.7314247E1,2.7928001E1,1.8336823E1,9.152557E0,5.6573242E1,2.0334546E2,0E0,7.0127845E0,0E0,0E0,0E0,9.975319E-1,1.4549843E1,2.1554565E-1,2.3740768E-2,2.9583342E0,7.9378953E0,1.559668E1,2.2655017E2,7.222949E1,1.1212924E1,1.349173E1,1.1367849E1,1.7208838E1,2.3770038E-2,0E0,1.1385918E2,3.8529793E1,4.000413E1,2.3808228E1,2.3829384E1,4.6118687E1,1.5499634E1,2.7678345E1,7.065082E1,2.2516809E2,3.2577637E1,1.1256209E2,2.3359207E1,3.1654755E1,3.4505836E1,2.6260468E1,7.1076236E0,3.9417E0,1.3095192E1,9.457726E0,3.3313694E0,1.6188049E0,4.3521624E0,2.5427976E0,6.3829086E1,6.7226562E0,5.8820724E0,3.1804604E1,3.0333247E0,0E0,2.6975415E0,9.798603E-1,6.9639664E0,2.122716E0,1.15926504E-1,0E0,0E0,0E0,2.0851333E0,4.134844E0,0E0,0E0,0E0,0E0,0E0,0E0,0E0,0E0,0E0,0E0,0E0,0E0,0E0,0E0,0E0,0E0,0E0,0E0,0E0,0E0,0E0,0E0,0E0,0E0,0E0,0E0,0E0,0E0,0E0,0E0,0E0,0E0,0E0,0E0,0E0,0E0,0E0,0E0,0E0,0E0,0E0,0E0,0E0,0E0,0E0,0E0,0E0,0E0,0E0,0E0,0E0,0E0,0E0,0E0,0E0,0E0,0E0,0E0,0E0,0E0,0E0,0E0,0E0,0E0,0E0,0E0,0E0,0E0,0E0,0E0,0E0,0E0,0E0,0E0,0E0,0E0,0E0,0E0,0E0,0E0,0E0,0E0,0E0,0E0,0E0,0E0,0E0,0E0,0E0,0E0],"parents":[2147483647,0,0,1,1,2,2,3,3,4,4,5,5,6,6,7,7,8,8,9,9,10,10,11,11,12,12,13,13,14,14,15,15,16,16,17,17,18,18,19,19,20,20,21,21,22,22,23,23,24,24,25,25,26,26,27,27,28,28,29,29,30,30,31,31,32,32,33,33,34,34,36,36,39,39,40,40,41,41,42,42,43,43,44,44,45,45,46,46,47,47,48,48,49,49,50,50,51,51,52,52,54,54,58,58,59,59,60,60,61,61,62,62,63,63,64,64,65,65,66,66,67,67,68,68,69,69,70,70,71,71,73,73,74,74,75,75,76,76,77,77,78,78,79,79,80,80,81,81,82,82,83,83,84,84,85,85,86,86,87,87,88,88,89,89,90,90,91,91,92,92,93,93,94,94,95,95,96,96,97,97,98,98,99,99,100,100,101,101,103,103,104,104,105,105,106,106,107,107,111,111,112,112],"right_children":[2,4,6,8,10,12,14,16,18,20,22,24,26,28,30,32,34,36,38,40,42,44,46,48,50,52,54,56,58,60,62,64,66,68,70,-1,72,-1,-1,74,76,78,80,82,84,86,88,90,92,94,96,98,100,-1,102,-1,-1,-1,104,106,108,110,112,114,116,118,120,122,124,126,128,130,-1,132,134,136,138,140,142,144,146,148,150,152,154,156,158,160,162,164,166,168,170,172,174,176,178,180,182,184,186,188,-1,190,192,194,196,198,-1,-1,-1,200,202,-1,-1,-1,-1,-1,-1,-1,-1,-1,-1,-1,-1,-1,-1,-1,-1,-1,-1,-1,-1,-1,-1,-1,-1,-1,-1,-1,-1,-1,-1,-1,-1,-1,-1,-1,-1,-1,-1,-1,-1,-1,-1,-1,-1,-1,-1,-1,-1,-1,-1,-1,-1,-1,-1,-1,-1,-1,-1,-1,-1,-1,-1,-1,-1,-1,-1,-1,-1,-1,-1,-1,-1,-1,-1,-1,-1,-1,-1,-1,-1,-1,-1,-1,-1,-1,-1,-1,-1,-1,-1],"split_conditions":[1.85E1,3.5E0,3.05E1,2.5E0,1.45E1,5E-1,1.15E1,1.65E1,3.5E0,1.45E1,1.25E1,2.8E1,2.75E1,1.15E1,1.65E1,3.5E0,1.25E1,1.8E1,5E-1,5E-1,5E-1,9.5E0,5.5E0,1.15E1,3.25E1,1.15E1,2.85E1,4E0,5E-1,1.45E1,1.1E1,2.5E0,1.25E1,1.1E1,2.05E1,-2.4405256E-1,1.5E0,-8.5990936E-2,4.600739E-1,1.55E1,5.5E0,5.5E0,8.5E0,1.5E0,2.65E1,3.5E0,5E-1,2.65E1,2.05E1,1.95E1,1.85E1,5.5E0,2.05E1,-4.639372E-1,1.7E1,3.0895537E-1,-1.9870661E-1,9.8638445E-2,1.45E1,3.25E1,3.15E1,3.25E1,5E-1,1.45E1,5E-1,1.15E1,1.35E1,3.25E1,1.5E0,3E0,5E-1,1.85E1,3.8399875E-1,1.25E1,1.65E1,1.1E1,1.45E1,9.5E0,5E-1,5.5E0,5.5E0,2.95E1,3.5E0,5E-1,5E-1,5E-1,1.25E1,1.35E1,3.25E1,4.5E0,4.5E0,7E0,2.25E1,1.85E1,3.05E1,1.3E1,2.15E1,2.95E1,5E-1,1.7E1,2.15E1,1.1E1,-4.2181343E-1,3.25E1,1.85E1,5E-1,1.25E1,1.55E1,4.5299855E-1,1.7149013E-1,4.2608806E-1,1.35E1,5.5E0,1.9324677E-1,-1.6373304E-1,1.5548056E-1,4.5959216E-1,9.727263E-2,-4.19345E-1,3.9403924E-1,-1.7915187E-2,4.638433E-2,-3.4459752E-1,-5.136481E-2,-4.1967818E-1,-2.3089131E-2,-4.841206E-1,1.9895615E-1,-3.065906E-1,5.5593994E-2,-0E0,1.7428795E-1,-1.6450493E-1,-2.3515482E-1,1.7845497E-1,-4.2428547E-1,3.1883228E-1,7.2553344E-2,-4.0669373E-1,-6.56914E-2,2.807323E-1,4.0031552E-2,-1.8258096E-1,-1.6110696E-1,-4.6422634E-1,5.0906148E-2,-3.49209E-1,2.175703E-1,4.2090318E-1,-4.4914478E-1,-1.0955313E-2,1.7089587E-1,4.2725286E-1,3.6786083E-2,-4.2945176E-1,2.6241856E-2,-3.4510586E-1,-3.2531735E-2,4.3573704E-1,1.1239007E-1,-7.7236116E-2,-3.8672817E-1,4.3258697E-1,8.9579634E-2,-3.886488E-2,-1.04854695E-1,-3.106806E-1,4.4066425E-2,-3.358663E-1,1.8599157E-1,3.5990208E-1,-9.5353015E-2,3.115791E-1,-4.5133045E-1,-1.0528038E-1,2.6442093E-1,-1.6601276E-1,-4.0699798E-1,3.2161303E-2,-2.8930044E-1,6.81247E-1,-4.0915486E-1,-4.590718E-1,-1.593922E-1,-4.2661184E-1,1.5660532E-1,4.449877E-1,3.271685E-1,-1.3045992E-1,-2.8995082E-1,8.3639525E-2,-4.0577394E-1,-1.01941675E-1,4.118537E-2,4.3778506E-1,1.2553346E-1,3.5616726E-1,9.1449216E-2,2.8827843E-1,2.410513E-2,-2.883503E-1,2.0578237E-1,-5.244019E-2],"split_indices":[28,29,28,29,29,23,29,27,28,27,28,29,29,27,29,28,28,26,26,18,22,28,27,29,29,29,28,24,26,29,27,28,28,28,27,0,22,0,0,28,25,28,29,28,29,27,21,28,28,28,26,29,28,0,26,0,0,0,27,28,28,28,25,26,24,28,27,27,25,24,19,24,0,29,28,27,26,29,24,29,28,29,28,25,21,21,26,28,27,25,26,24,29,26,29,24,26,28,19,29,27,23,0,28,27,25,29,27,0,0,0,27,24,0,0,0,0,0,0,0,0,0,0,0,0,0,0,0,0,0,0,0,0,0,0,0,0,0,0,0,0,0,0,0,0,0,0,0,0,0,0,0,0,0,0,0,0,0,0,0,0,0,0,0,0,0,0,0,0,0,0,0,0,0,0,0,0,0,0,0,0,0,0,0,0,0,0,0,0,0,0,0,0,0,0,0,0,0,0,0,0,0,0],"split_type":[0,0,0,0,0,0,0,0,0,0,0,0,0,0,0,0,0,0,0,0,0,0,0,0,0,0,0,0,0,0,0,0,0,0,0,0,0,0,0,0,0,0,0,0,0,0,0,0,0,0,0,0,0,0,0,0,0,0,0,0,0,0,0,0,0,0,0,0,0,0,0,0,0,0,0,0,0,0,0,0,0,0,0,0,0,0,0,0,0,0,0,0,0,0,0,0,0,0,0,0,0,0,0,0,0,0,0,0,0,0,0,0,0,0,0,0,0,0,0,0,0,0,0,0,0,0,0,0,0,0,0,0,0,0,0,0,0,0,0,0,0,0,0,0,0,0,0,0,0,0,0,0,0,0,0,0,0,0,0,0,0,0,0,0,0,0,0,0,0,0,0,0,0,0,0,0,0,0,0,0,0,0,0,0,0,0,0,0,0,0,0,0,0,0,0,0,0,0,0,0,0,0,0],"sum_hessian":[2.0743568E4,1.5033247E4,5.710321E3,7.053968E3,7.97928E3,5.375817E3,3.3450418E2,4.00984E3,3.0441277E3,2.8196575E3,5.159622E3,6.298953E2,4.7459214E3,1.7733679E1,3.167705E2,3.628319E3,3.8152103E2,7.9824457E0,3.0361453E3,1.3651808E3,1.4544766E3,4.3615444E3,7.980779E2,4.6109927E2,1.68796E2,1.6836617E3,3.0622598E3,4.6091523E0,1.3124527E1,2.785331E2,3.823742E1,1.8354926E3,1.7928267E3,2.9767337E2,8.384763E1,1.9556665E0,6.026779E0,1.9722292E0,3.034173E3,1.15149E3,2.136908E2,4.8596716E2,9.6850946E2,1.2125619E3,3.1489824E3,2.205296E2,5.775483E2,2.2214944E2,2.3894983E2,1.5339098E2,1.5405042E1,1.4778401E3,2.0582158E2,3.0540737E3,8.185979E0,3.1305468E0,1.4786057E0,1.4946129E0,1.1629913E1,9.807162E1,1.8046147E2,1.0810929E1,2.7426489E1,2.1420227E1,1.8140723E3,3.826665E2,1.4101602E3,6.3728462E1,2.3394492E2,1.8530256E1,6.5317375E1,2.2486122E0,3.778167E0,9.671742E2,1.843158E2,3.9024082E1,1.746667E2,8.776037E1,3.982068E2,5.316842E2,4.3682526E2,6.385801E2,5.7398175E2,2.955165E3,1.9381732E2,1.2032231E2,1.0020729E2,4.0352E2,1.7402829E2,1.541517E2,6.799774E1,4.615557E1,1.9279427E2,9.665675E0,1.437253E2,1.0782287E1,4.622755E0,2.0404329E2,1.2737969E3,5.9507507E1,1.4631407E2,3.3991003E0,4.786878E0,5.307061E0,6.3228526E0,6.47494E1,3.3322227E1,3.4483085E0,1.7701317E2,1.9778333E0,8.833096E0,6.4118547E0,2.1014635E1,1.3023225E1,8.397003E0,1.6604324E1,1.797468E3,1.0476463E2,2.7790186E2,1.3708419E3,3.9318176E1,5.728359E1,6.444873E0,9.63306E0,2.2431186E2,9.247747E0,9.282509E0,5.947552E1,5.841858E0,1.2486122E0,1E0,8.6847003E2,9.870419E1,1.6190741E2,2.240839E1,7.2206717E0,3.180341E1,9.589626E0,1.6507709E2,2.4264805E1,6.349556E1,1.1902398E2,2.7918283E2,1.703935E1,5.1464484E2,1.5909212E1,4.2091605E2,3.7070227E2,2.6787784E2,1.3830539E2,4.356764E2,4.7121628E1,2.9080435E3,7.675278E1,1.17064545E2,1.0346397E2,1.6858347E1,1.5145738E1,8.5061554E1,1.2375492E2,2.7976508E2,1.7122113E2,2.807162E0,7.096507E1,8.318664E1,1.1357985E1,5.6639755E1,3.6718315E1,9.437257E0,1.5717892E2,3.5615337E1,8.421393E0,1.2442813E0,1.4178925E2,1.936056E0,8.824744E0,1.9575424E0,3.1548133E0,1.4679418E0,1.9867624E2,5.3670497E0,6.7078394E2,6.030129E2,1.0624411E1,4.8883095E1,8.941693E1,5.689714E1,1.4778333E0,1.9212669E0,2.6413274E0,2.6657338E0,4.0948644E0,2.227988E0,4.4966545E0,6.025274E1,2.9637808E1,3.684418E0,1.8390979E0,1.6092106E0,3.7490652E0,2.6627898E0,1.1574151E1,9.440483E0],"tree_param":{"num_deleted":"0","num_feature":"30","num_nodes":"203","size_leaf_vector":"0"}},{"base_weights":[2.0486201E-1,6.306398E-1,-9.4816005E-1,1.0261941E0,3.0165875E-1,-1.0702902E0,9.6806896E-1,8.090985E-1,1.3228164E0,-3.4490645E-1,6.7125195E-1,-1.6501115E-1,-1.2037634E0,-3.102201E-1,1.0464952E0,9.6820444E-1,-6.263195E-1,3.7355548E-1,1.3254508E0,7.078795E-2,-7.600721E-1,8.2786864E-1,-1.2126763E-1,1.3068524E-1,-1.0605644E0,-9.6317005E-1,-1.3404742E0,3.7052485E-1,-5.556783E-1,1.1449143E0,3.825159E-1,1.2984748E0,6.4865315E-1,-8.5489506E-1,1.2568147E-1,-6.7784405E-1,7.734486E-1,-2.3044297E-1,1.3267449E0,6.585694E-1,-1.5551634E-1,-1.4601249E-1,-1.108827E0,2.6376274E-1,1.0654224E0,7.412575E-2,-6.783989E-1,-1.7615145E-1,4.2029566E-1,3.8308624E-2,-1.1974753E0,-1.1380712E0,2.606906E-1,-1.3430307E0,-4.6646693E-1,8.549989E-1,-5.5648184E-1,-1.4273918E-1,-9.462141E-1,8.8394696E-1,1.2895433E0,1.1238508E0,8.859103E-2,1.2795524E-1,1.3143777E0,-5.925458E-1,1.095804E0,-1.4136746E-4,-1.1208038E0,-1.2257861E-1,1.1113197E0,1.0703482E-1,1.0937512E0,5.2391905E-2,1.1248934E0,1.773271E-1,-6.7216694E-1,4.4505882E-1,-2.7653715E-1,-1.2828118E0,-8.4677744E-1,7.894496E-1,-2.879901E-1,1.1868858E0,-6.3330805E-1,7.592185E-1,-2.456053E-1,-9.8379046E-1,-5.7603706E-2,4.8406947E-2,-7.121527E-1,-9.879852E-2,5.498578E-1,4.4559395E-1,-4.743609E-1,-1.2890606E0,-7.909284E-2,-3.804219E-1,-1.1935513E0,-1.0524554E0,7.9145205E-1,-1.3433166E0,-3.0920058E-1,4.2591074E-1,-1.1839762E0,-4.007997E-1,6.7451584E-1,-1.08216E0,-2.6603213E-1,1.155141E0,3.998006E-1,1.3130943E0,8.4340596E-1,4.647618E-1,1.218663E0,-5.767106E-1,2.1878201E-1,3.384994E-1,-1.2169757E0,1.9069485E-1,1.3256103E0,-3.726444E-2,-9.9729526E-1,1.123291E0,-1.3995181E0,5.249959E-1,-2.1785143E-1,-1.1595088E0,2.2276106E-1,8.0604255E-2,-1.1759167E0,1.4018196E0,1.529265E-1,1.5470457E-1,-0E0,4.2454848E-1,-3.165817E-1,1.9468957E-1,1.3517836E0,2.3712175E-1,-1.4075973E0,-2.4443352E-1,-1.1654556E0,-3.0854648E-1,6.4963466E-1,-9.677483E-2,-6.575438E-1,-2.7003735E-1,-1.3108423E0,-6.9169736E-1,-1.3450981E0,4.1968372E-1,1.0686878E0,1.7790225E-1,-9.670287E-1,1.2472259E0,9.3399835E-1,6.707786E-1,-9.7879994E-1,9.6879894E-1,6.7870044E-3,-8.423187E-2,-1.2297904E0,-5.5381393E-1,-1.2510688E0,2.0646779E-1,-4.3558964E-1,1.5214E-1,-3.5607052E-1,-1.0400822E0,-5.4550153E-1,-1.3349084E0,8.4368184E-2,4.3650272E-1,1.068121E0,1.4502916E-1,8.241443E-1,-8.041964E-1,7.606493E-1,4.9786472E-1,-4.9180067E-1,-5.917408E-1,4.8837927E-1,-9.6493924E-1,-1.2552282E0,-3.955575E-1,-1.2023923E0,4.9829105E-1,1.2713804E0,-1.3415229E0,-1.9754033E0,1.0005748E0,-1.9802375E-1,-7.822514E-1,7.009052E-1,1.0374687E-1,1.2436324E0,5.1651627E-1,-1.4499271E-2,6.512501E-1,1.3237516E0,-4.9590948E-1,1.0965308E0,1.2868659E-1,-1.1735716E0,3.4134662E-1,-6.046818E-1],"categories":[],"categories_nodes":[],"categories_segments":[],"categories_sizes":[],"default_left":[true,true,true,true,true,true,true,true,true,true,true,true,true,true,true,true,true,true,true,true,true,true,true,true,true,true,true,true,true,true,true,true,true,true,true,false,true,false,false,true,true,true,true,true,true,true,true,true,true,true,true,true,true,true,true,false,false,true,true,true,true,true,true,true,true,true,true,true,true,true,true,true,false,true,true,true,true,true,true,true,true,true,true,true,true,true,true,true,true,true,true,true,true,true,true,false,true,true,true,true,true,true,false,true,false,true,false,false,false,true,true,true,true,false,false,true,true,false,false,false,false,false,false,false,false,false,false,false,false,false,false,false,false,false,false,false,false,false,false,false,false,false,false,false,false,false,false,false,false,false,false,false,false,false,false,false,false,false,false,false,false,false,false,false,false,false,false,false,false,false,false,false,false,false,false,false,false,false,false,false,false,false,false,false,false,false,false,false,false,false,false,false,false,false,false,false,false,false,false,false,false,false,false,false,false,false,false],"id":2,"left_children":[1,3,5,7,9,11,13,15,17,19,21,23,25,27,29,31,33,35,37,39,41,43,45,47,49,51,53,55,57,59,61,63,65,67,69,-1,71,-1,-1,73,75,77,79,81,83,85,87,89,91,93,95,97,99,101,103,-1,-1,105,107,109,111,113,115,117,119,121,123,125,127,129,131,133,-1,135,137,139,141,143,145,147,149,151,153,155,157,159,161,163,165,167,169,171,173,175,177,-1,179,181,183,185,187,189,-1,191,-1,193,-1,-1,-1,195,197,199,201,-1,-1,203,205,-1,-1,-1,-1,-1,-1,-1,-1,-1,-1,-1,-1,-1,-1,-1,-1,-1,-1,-1,-1,-1,-1,-1,-1,-1,-1,-1,-1,-1,-1,-1,-1,-1,-1,-1,-1,-1,-1,-1,-1,-1,-1,-1,-1,-1,-1,-1,-1,-1,-1,-1,-1,-1,-1,-1,-1,-1,-1,-1,-1,-1,-1,-1,-1,-1,-1,-1,-1,-1,-1,-1,-1,-1,-1,-1,-1,-1,-1,-1,-1,-1,-1,-1,-1,-1,-1,-1,-1,-1,-1],"loss_changes":[8.929778E3,1.7283052E3,1.1490645E3,3.8731006E2,1.7335914E3,5.5707715E2,2.9842865E1,7.9652295E2,5.875E0,4.554814E2,5.7300635E2,1.5737802E2,1.3090967E2,3.1788106E0,1.7705994E1,3.3030005E2,5.9984985E1,4.073604E0,5.4194336E0,1.7562263E2,2.8260516E2,5.161992E2,8.3056244E1,3.9820587E1,2.2236847E1,3.127904E2,5.0942383E0,2.8628447E0,2.0383039E0,7.9678345E0,8.037567E0,2.8534668E1,8.868235E2,6.0748215E1,2.0219124E1,0E0,1.2880499E0,0E0,0E0,1.03683136E2,1.6409123E2,3.7110382E1,3.730066E1,3.318772E2,5.602759E2,1.2403928E2,3.7497E1,2.625988E1,1.5549431E1,3.8258069E0,1.3335419E1,5.324585E1,1.2862665E2,3.388672E-1,6.2665586E0,0E0,0E0,1.9002231E0,3.3614206E-1,1.1253227E1,5.0094604E-1,9.0810776E-2,2.53645E0,6.578263E0,1.8947021E1,9.51505E1,8.210742E1,7.479249E0,1.08594055E1,1.4318751E1,4.410757E0,1.6558774E-2,0E0,2.2190233E1,4.350525E1,5.5367947E1,7.858832E1,1.3629078E1,2.6875196E1,1.3955444E1,2.5259262E1,6.0038147E1,1.768947E2,3.7458496E1,8.248101E1,2.8403603E1,6.1242996E1,1.4558258E1,6.715284E0,6.536207E0,2.9518127E0,1.07238245E1,1.0374325E1,1.036725E0,3.9308124E0,0E0,2.863016E0,1.6561598E1,1.5566284E1,4.764988E0,1.7818665E1,2.4267578E-1,0E0,1.8999815E0,0E0,3.2802181E0,0E0,0E0,0E0,5.1426773E0,1.6305013E0,1.5086365E-1,4.09374E0,0E0,0E0,2.1842437E0,2.628448E0,0E0,0E0,0E0,0E0,0E0,0E0,0E0,0E0,0E0,0E0,0E0,0E0,0E0,0E0,0E0,0E0,0E0,0E0,0E0,0E0,0E0,0E0,0E0,0E0,0E0,0E0,0E0,0E0,0E0,0E0,0E0,0E0,0E0,0E0,0E0,0E0,0E0,0E0,0E0,0E0,0E0,0E0,0E0,0E0,0E0,0E0,0E0,0E0,0E0,0E0,0E0,0E0,0E0,0E0,0E0,0E0,0E0,0E0,0E0,0E0,0E0,0E0,0E0,0E0,0E0,0E0,0E0,0E0,0E0,0E0,0E0,0E0,0E0,0E0,0E0,0E0,0E0,0E0,0E0,0E0,0E0,0E0,0E0,0E0,0E0,0E0,0E0,0E0,0E0,0E0],"parents":[2147483647,0,0,1,1,2,2,3,3,4,4,5,5,6,6,7,7,8,8,9,9,10,10,11,11,12,12,13,13,14,14,15,15,16,16,17,17,18,18,19,19,20,20,21,21,22,22,23,23,24,24,25,25,26,26,27,27,28,28,29,29,30,30,31,31,32,32,33,33,34,34,36,36,39,39,40,40,41,41,42,42,43,43,44,44,45,45,46,46,47,47,48,48,49,49,50,50,51,51,52,52,53,53,54,54,57,57,58,58,59,59,60,60,61,61,62,62,63,63,64,64,65,65,66,66,67,67,68,68,69,69,70,70,71,71,73,73,74,74,75,75,76,76,77,77,78,78,79,79,80,80,81,81,82,82,83,83,84,84,85,85,86,86,87,87,88,88,89,89,90,90,91,91,92,92,93,93,94,94,96,96,97,97,98,98,99,99,100,100,101,101,103,103,105,105,109,109,110,110,111,111,112,112,115,115,116,116],"right_children":[2,4,6,8,10,12,14,16,18,20,22,24,26,28,30,32,34,36,38,40,42,44,46,48,50,52,54,56,58,60,62,64,66,68,70,-1,72,-1,-1,74,76,78,80,82,84,86,88,90,92,94,96,98,100,102,104,-1,-1,106,108,110,112,114,116,118,120,122,124,126,128,130,132,134,-1,136,138,140,142,144,146,148,150,152,154,156,158,160,162,164,166,168,170,172,174,176,178,-1,180,182,184,186,188,190,-1,192,-1,194,-1,-1,-1,196,198,200,202,-1,-1,204,206,-1,-1,-1,-1,-1,-1,-1,-1,-1,-1,-1,-1,-1,-1,-1,-1,-1,-1,-1,-1,-1,-1,-1,-1,-1,-1,-1,-1,-1,-1,-1,-1,-1,-1,-1,-1,-1,-1,-1,-1,-1,-1,-1,-1,-1,-1,-1,-1,-1,-1,-1,-1,-1,-1,-1,-1,-1,-1,-1,-1,-1,-1,-1,-1,-1,-1,-1,-1,-1,-1,-1,-1,-1,-1,-1,-1,-1,-1,-1,-1,-1,-1,-1,-1,-1,-1,-1,-1,-1,-1],"split_conditions":[1.85E1,3.5E0,3.05E1,2.5E0,1.45E1,5E-1,1.15E1,1.65E1,3.5E0,1.45E1,1.25E1,2.65E1,2.55E1,1.15E1,1.65E1,3.5E0,1.25E1,1.8E1,5E-1,4.5E0,5E-1,9.5E0,1.85E1,1.15E1,1.95E1,1.15E1,2.95E1,4E0,9E0,1.45E1,1.1E1,2.5E0,1.45E1,1.1E1,2.35E1,-2.0335323E-1,1.5E0,-6.9132894E-2,3.980235E-1,1.85E1,1.55E1,5.5E0,1.05E1,1.5E0,2.55E1,1.35E1,2.05E1,2.65E1,2.05E1,1.5E0,3.05E1,2.35E1,2.05E1,3.25E1,1.7E1,2.5649968E-1,-1.6694456E-1,1E1,2.05E1,3.25E1,2.75E1,3.25E1,3.15E1,2.5E0,2E0,2.5E0,2.65E1,2.5E0,3.05E1,9.5E0,2.55E1,1.85E1,3.2812536E-1,5.5E0,2.5E0,2.95E1,5E-1,8.5E0,1.45E1,9.5E0,5E-1,1.75E1,1.5E0,1.55E1,1.5E0,1.15E1,5E-1,1.5E0,1.55E1,1.55E1,8E0,1.35E1,2.25E1,3.25E1,1.75E1,-3.8671818E-1,6.5E0,1.95E1,5E-1,1.7E1,2.15E1,2.8E1,-9.2760175E-2,1.45E1,-3.5519287E-1,3E0,2.0235476E-1,-3.2464802E-1,-7.980964E-2,5E-1,1.1E1,3.15E1,2.5E0,1.3942854E-1,3.6559892E-1,3E0,8E0,1.0154983E-1,-3.6509272E-1,5.720846E-2,3.976831E-1,-1.1179333E-2,-2.9918858E-1,3.3698732E-1,-4.1985545E-1,1.5749878E-1,-6.5355435E-2,-3.4785265E-1,6.6828325E-2,2.4181278E-2,-3.52775E-1,4.205459E-1,4.5877952E-2,4.6411373E-2,-0E0,1.2736455E-1,-9.497451E-2,5.8406875E-2,4.055351E-1,7.113653E-2,-4.222792E-1,-7.333006E-2,-3.4963667E-1,-9.256395E-2,1.9489041E-1,-2.903245E-2,-1.9726314E-1,-8.1011206E-2,-3.932527E-1,-2.0750922E-1,-4.0352947E-1,1.2590513E-1,3.2060635E-1,5.3370677E-2,-2.9010862E-1,3.7416777E-1,2.8019953E-1,2.0123358E-1,-2.9364E-1,2.906397E-1,2.0361014E-3,-2.5269562E-2,-3.6893713E-1,-1.6614419E-1,-3.7532067E-1,6.194034E-2,-1.306769E-1,4.5642003E-2,-1.0682116E-1,-3.1202468E-1,-1.6365047E-1,-4.0047252E-1,2.5310457E-2,1.3095082E-1,3.204363E-1,4.350875E-2,2.472433E-1,-2.4125893E-1,2.281948E-1,1.4935942E-1,-1.4754021E-1,-1.7752224E-1,1.4651379E-1,-2.894818E-1,-3.7656847E-1,-1.1866725E-1,-3.607177E-1,1.4948732E-1,3.8141415E-1,-4.024569E-1,-5.92621E-1,3.0017245E-1,-5.9407126E-2,-2.3467544E-1,2.1027157E-1,3.1124061E-2,3.7308973E-1,1.5495488E-1,-4.3497817E-3,1.9537504E-1,3.9712548E-1,-1.4877285E-1,3.2895926E-1,3.860598E-2,-3.520715E-1,1.0240399E-1,-1.8140455E-1],"split_indices":[28,29,28,29,29,23,29,27,28,27,28,29,29,27,29,28,28,26,26,25,22,28,26,29,28,29,28,24,26,29,27,28,28,28,26,0,22,0,0,26,24,28,29,28,29,28,26,28,28,24,29,28,28,26,26,0,0,29,26,28,27,28,28,21,27,23,26,28,27,21,26,24,0,27,25,26,20,29,24,28,19,26,22,27,24,27,20,22,28,24,29,29,27,29,24,0,25,27,21,29,27,28,0,23,0,22,0,0,0,25,23,28,24,0,0,26,22,0,0,0,0,0,0,0,0,0,0,0,0,0,0,0,0,0,0,0,0,0,0,0,0,0,0,0,0,0,0,0,0,0,0,0,0,0,0,0,0,0,0,0,0,0,0,0,0,0,0,0,0,0,0,0,0,0,0,0,0,0,0,0,0,0,0,0,0,0,0,0,0,0,0,0,0,0,0,0,0,0,0,0,0,0,0,0,0,0,0],"split_type":[0,0,0,0,0,0,0,0,0,0,0,0,0,0,0,0,0,0,0,0,0,0,0,0,0,0,0,0,0,0,0,0,0,0,0,0,0,0,0,0,0,0,0,0,0,0,0,0,0,0,0,0,0,0,0,0,0,0,0,0,0,0,0,0,0,0,0,0,0,0,0,0,0,0,0,0,0,0,0,0,0,0,0,0,0,0,0,0,0,0,0,0,0,0,0,0,0,0,0,0,0,0,0,0,0,0,0,0,0,0,0,0,0,0,0,0,0,0,0,0,0,0,0,0,0,0,0,0,0,0,0,0,0,0,0,0,0,0,0,0,0,0,0,0,0,0,0,0,0,0,0,0,0,0,0,0,0,0,0,0,0,0,0,0,0,0,0,0,0,0,0,0,0,0,0,0,0,0,0,0,0,0,0,0,0,0,0,0,0,0,0,0,0,0,0,0,0,0,0,0,0,0,0,0,0,0,0],"sum_hessian":[1.8187252E4,1.3282764E4,4.904489E3,6.030183E3,7.252581E3,4.611047E3,2.9344196E2,3.483999E3,2.5461838E3,2.637905E3,4.6146763E3,5.927779E2,4.0182688E3,1.6791842E1,2.7665012E2,3.1366492E3,3.4734995E2,7.441784E0,2.538742E3,1.3185277E3,1.3193774E3,3.8531724E3,7.615036E2,4.4627847E2,1.4649947E2,1.4588784E3,2.5593904E3,4.3150673E0,1.2476775E1,2.4030615E2,3.6343967E1,1.5409482E3,1.5957009E3,2.662766E2,8.1073326E1,1.8590097E0,5.582774E0,1.962635E0,2.5367793E3,3.66001E2,9.525266E2,4.784245E2,8.4095294E2,1.1424261E3,2.7107463E3,5.6442065E2,1.9708292E2,2.1688487E2,2.293936E2,1.631028E1,1.3018918E2,1.2765216E3,1.8235677E2,2.5513909E3,7.9995117E0,2.8849874E0,1.4300798E0,6.728153E0,5.748622E0,8.822522E1,1.5208093E2,9.516907E0,2.6827063E1,2.0776234E1,1.520172E3,4.225272E2,1.1731738E3,6.3419037E1,2.0285757E2,6.5460846E1,1.561248E1,2.2453406E0,3.3374336E0,1.5962103E2,2.0637999E2,5.797131E2,3.728136E2,8.610312E1,3.9232138E2,5.030579E2,3.3789505E2,5.848116E2,5.5761456E2,2.5301367E3,1.8060963E2,1.791591E2,3.8526157E2,1.3170685E2,6.5376076E1,1.534898E2,6.339506E1,4.586633E1,1.8352727E2,9.162253E0,7.148027E0,1.20193794E2,9.995388E0,8.763361E1,1.1888881E3,5.220774E1,1.3014903E2,2.5503862E3,1.0045997E0,3.7464259E0,4.253086E0,5.500778E0,1.2273749E0,4.2985067E0,1.4501153E0,5.5660904E1,3.256432E1,1.426095E2,9.471427E0,1.939104E0,7.5778027E0,3.829227E0,2.2997835E1,1.8611053E1,2.1651793E0,1.5223503E1,1.5049485E3,1.7859808E2,2.4392911E2,1.1609354E3,1.2238355E1,1.8172882E1,4.5246155E1,1.9731052E2,5.547061E0,5.56498E1,9.8110485E0,1.162587E1,3.986611E0,1.2453405E0,1E0,7.939276E1,8.0228264E1,4.083261E1,1.6554738E2,5.594567E2,2.025631E1,2.0047559E2,1.72338E2,1.827488E1,6.782824E1,2.6740927E2,1.249121E2,1.3834485E1,4.8922342E2,2.595193E2,7.8375755E1,2.526959E2,3.3211566E2,3.3114917E2,2.264654E2,2.0395576E3,4.9057913E2,3.763014E1,1.4297949E2,1.3990324E2,3.925586E1,3.319229E2,5.333867E1,5.1664734E1,8.0042114E1,3.875472E1,2.6621357E1,1.2265686E2,3.083295E1,1.9595243E1,4.3799816E1,5.1078434E0,4.0758484E1,1.5210167E2,3.142559E1,5.878169E0,3.2840843E0,5.9166856E0,1.2313414E0,4.082206E0,5.913182E0,7.074515E1,1.688847E1,2.5613635E2,9.3275165E2,1.0378031E1,4.182971E1,8.206092E1,4.8088104E1,2.5462832E3,4.1030464E0,1.6359806E0,2.1104453E0,4.3014255E0,1.1993527E0,4.4897056E0,5.1171196E1,2.5214285E1,7.3500357E0,3.244227E0,1.3936528E2,1.353061E0,8.118365E0,2.1145506E0,1.7146765E0,2.0527927E1,2.4699082E0],"tree_param":{"num_deleted":"0","num_feature":"30","num_nodes":"207","size_leaf_vector":"0"}},{"base_weights":[1.7326492E-1,5.291857E-1,-8.2933444E-1,9.035476E-1,2.4281196E-1,-9.380414E-1,8.242442E-1,6.958033E-1,1.2029268E0,-2.6820552E-1,5.519985E-1,-1.3169113E-1,-1.0743382E0,-2.4432248E-1,8.95904E-1,8.3813584E-1,-5.048009E-1,3.1164545E-1,1.2057682E0,-8.6312354E-1,-5.3275384E-2,7.445887E-1,3.0970179E-2,9.333844E-2,-9.224716E-1,-8.261285E-1,-1.2247885E0,6.05176E-1,-3.7683582E-1,9.98198E-1,2.900702E-1,1.1739504E0,5.3794605E-1,-6.016806E-3,-8.0136484E-1,-5.723939E-1,6.583703E-1,-1.8557934E-1,1.2071925E0,2.090205E-1,-1.0767134E0,5.4129567E-2,-8.218621E-1,8.925418E-1,7.92267E-3,9.9775785E-1,-4.4623926E-1,1.6871212E-2,8.046663E-1,4.3600567E-2,-1.0652424E0,-9.827206E-1,1.6921838E-1,-1.2269286E0,-5.037648E-1,2.6197292E-2,-7.33924E-1,7.271346E-1,1.1626465E0,9.8482513E-1,4.825724E-2,1.1499732E-1,1.1941301E0,-4.5477182E-1,9.304238E-1,2.9341027E-1,-3.3705375E-1,-9.964047E-1,-8.837029E-3,1.0303391E0,7.613691E-2,-3.4883872E-1,1.2563375E0,-3.5378268E-1,-1.2608616E0,1.5782303E-1,-7.256996E-1,-7.143032E-2,-9.8454726E-1,4.7881413E-1,1.0658307E0,2.2659086E-1,-6.352212E-1,1.08958E0,3.2426962E-3,5.6865823E-2,-1.1017594E0,1.8817157E-1,-3.7939122E-1,1.0195407E0,3.9775226E-1,9.245209E-1,-1.4328113E-1,-1.166877E0,-5.5411354E-2,-4.6849033E-1,-1.078717E0,-8.954139E-1,5.578219E-1,2.2334297E-1,-1.0397167E0,-3.2474607E-1,5.8001596E-1,-9.0413086E-2,-9.789263E-1,1.0107013E0,2.937575E-1,6.6923356E-1,1.1884499E0,3.8047096E-1,1.0894891E0,-6.8088824E-1,1.442747E-1,5.85619E-1,-3.169927E-1,9.534496E-3,1.2044296E0,3.37356E-1,-7.3403835E-1,1.0039992E0,-2.415901E-1,1.6603215E-1,5.688674E-1,2.4276224E-1,-4.9277237E-1,-2.714862E-1,-1.0951941E0,-5.4937863E-1,8.6752796E-1,-1.4484198E-1,3.023525E-1,-5.8827452E-2,-1.4546074E0,-1.5904274E0,1.7117978E0,6.869284E-1,-6.1897236E-1,-1.3253125E0,-1.7745288E-1,3.2018033E-1,-3.309223E-1,9.5101446E-1,-8.426542E-1,-1.1510965E0,3.7771994E-1,-1.0752527E0,-1.7791373E-1,2.6057225E-1,1.0664414E0,1.1020149E0,1.2289269E-1,7.295747E-1,-6.501374E-2,-1.0058657E0,3.789119E-2,6.1971295E-1,1.1571836E0,6.9732565E-1,-6.359659E-1,6.2871677E-1,-1.2430799E-1,-1.24094E0,6.8804543E-3,-1.0143123E-1,3.8189057E-1,-8.377909E-2,-6.441513E-1,5.830611E-1,1.1319427E0,-1.0446482E0,7.074017E-1,2.4770163E-1,-6.580019E-1,-6.4271855E-1,2.0862357E-1,-5.77854E-1,1.5747842E0,-9.776609E-1,-1.1958805E0,-2.953948E-1,-1.0574352E0,2.788935E-1,1.140192E0,-3.812332E-1,7.4670607E-1,4.8030004E-1,-8.463508E-1,-3.9758447E-1,2.9808727E-1,1.0840098E0,-2.0189297E-1,2.100023E-1,1.0077152E0,9.357211E-1,-1.4562234E-1,3.9451516E-1,1.1956263E0,-9.711612E-1,-8.17335E-2,8.1365234E-1,-3.8696453E-2],"categories":[],"categories_nodes":[],"categories_segments":[],"categories_sizes":[],"default_left":[true,true,true,true,true,true,true,true,true,true,true,true,true,true,true,true,true,true,true,true,true,true,true,true,true,true,true,false,true,true,true,true,true,true,true,false,true,false,false,true,true,true,true,true,true,true,true,true,true,true,true,true,true,false,true,true,true,true,true,true,true,true,true,true,true,true,true,true,true,false,true,true,true,true,true,true,true,true,true,true,true,true,true,true,true,true,true,true,true,true,true,false,true,false,true,true,true,true,true,true,false,true,false,true,false,true,true,true,true,false,false,true,true,false,false,false,false,false,false,false,false,false,false,false,false,false,false,false,false,false,false,false,false,false,false,false,false,false,false,false,false,false,false,false,false,false,false,false,false,false,false,false,false,false,false,false,false,false,false,false,false,false,false,false,false,false,false,false,false,false,false,false,false,false,false,false,false,false,false,false,false,false,false,false,false,false,false,false,false,false,false,false,false,false,false,false,false,false,false,false,false],"id":3,"left_children":[1,3,5,7,9,11,13,15,17,19,21,23,25,27,29,31,33,35,37,39,41,43,45,47,49,51,53,-1,55,57,59,61,63,65,67,-1,69,-1,-1,71,73,75,77,79,81,83,85,87,89,91,93,95,97,-1,99,101,103,105,107,109,111,113,115,117,119,121,123,125,127,-1,129,131,133,135,137,139,141,143,145,147,149,151,153,155,157,159,161,163,165,167,169,-1,171,-1,173,175,177,179,181,183,-1,185,-1,187,-1,189,191,193,195,-1,-1,197,199,-1,-1,-1,-1,-1,-1,-1,-1,-1,-1,-1,-1,-1,-1,-1,-1,-1,-1,-1,-1,-1,-1,-1,-1,-1,-1,-1,-1,-1,-1,-1,-1,-1,-1,-1,-1,-1,-1,-1,-1,-1,-1,-1,-1,-1,-1,-1,-1,-1,-1,-1,-1,-1,-1,-1,-1,-1,-1,-1,-1,-1,-1,-1,-1,-1,-1,-1,-1,-1,-1,-1,-1,-1,-1,-1,-1,-1,-1,-1,-1,-1,-1,-1,-1,-1,-1,-1,-1],"loss_changes":[5.570672E3,1.2348796E3,7.35969E2,3.096914E2,1.0316931E3,4.2168335E2,1.95784E1,5.0451733E2,4.8010254E0,3.147315E2,4.081798E2,9.904294E1,1.21588135E2,2.1051452E0,1.4407288E1,2.6526294E2,4.6334892E1,2.7812617E0,4.260742E0,1.4982559E2,1.4941873E2,3.2370898E2,5.074374E2,2.3582998E1,1.7050407E1,1.937591E2,2.532959E0,0E0,2.18391E0,8.180405E0,5.944621E0,2.6447998E1,5.4376025E2,1.1777232E1,3.0357986E1,0E0,1.242537E0,0E0,0E0,6.433373E1,7.209686E1,1.2857188E2,2.7023056E1,1.7681384E2,7.014622E1,3.3188385E1,2.4293515E2,2.672969E1,3.2743416E0,2.9038286E0,1.0963165E1,5.2480713E1,7.07065E1,0E0,3.2482772E0,1.7493498E0,1.174293E0,9.427017E0,7.878876E-1,1.6472626E-1,2.0242238E0,5.140346E0,1.4882446E1,8.780332E1,8.6451416E1,2.094901E0,5.2137804E0,1.0992416E1,1.933397E1,0E0,2.166302E-1,2.3047836E1,5.228434E1,3.1339745E1,3.0062744E1,1.1143248E2,3.7397415E1,2.013139E1,1.3147354E1,9.359094E1,5.93136E1,5.4638718E1,3.1612854E1,9.852509E0,1.4518918E1,4.3343975E1,4.9358307E1,1.5459032E1,9.249044E0,6.5989876E-1,7.967291E0,0E0,3.1321235E0,0E0,1.8204906E0,3.9037266E1,9.53125E0,4.1364136E0,1.9976429E1,1.5842668E0,0E0,2.7400866E0,0E0,5.135592E-1,0E0,4.434208E0,1.7441099E0,1.9752855E0,1.942749E-1,0E0,0E0,5.07763E-1,3.1098144E0,0E0,0E0,0E0,0E0,0E0,0E0,0E0,0E0,0E0,0E0,0E0,0E0,0E0,0E0,0E0,0E0,0E0,0E0,0E0,0E0,0E0,0E0,0E0,0E0,0E0,0E0,0E0,0E0,0E0,0E0,0E0,0E0,0E0,0E0,0E0,0E0,0E0,0E0,0E0,0E0,0E0,0E0,0E0,0E0,0E0,0E0,0E0,0E0,0E0,0E0,0E0,0E0,0E0,0E0,0E0,0E0,0E0,0E0,0E0,0E0,0E0,0E0,0E0,0E0,0E0,0E0,0E0,0E0,0E0,0E0,0E0,0E0,0E0,0E0,0E0,0E0,0E0,0E0,0E0,0E0,0E0,0E0,0E0,0E0,0E0,0E0,0E0,0E0],"parents":[2147483647,0,0,1,1,2,2,3,3,4,4,5,5,6,6,7,7,8,8,9,9,10,10,11,11,12,12,13,13,14,14,15,15,16,16,17,17,18,18,19,19,20,20,21,21,22,22,23,23,24,24,25,25,26,26,28,28,29,29,30,30,31,31,32,32,33,33,34,34,36,36,39,39,40,40,41,41,42,42,43,43,44,44,45,45,46,46,47,47,48,48,49,49,50,50,51,51,52,52,54,54,55,55,56,56,57,57,58,58,59,59,60,60,61,61,62,62,63,63,64,64,65,65,66,66,67,67,68,68,70,70,71,71,72,72,73,73,74,74,75,75,76,76,77,77,78,78,79,79,80,80,81,81,82,82,83,83,84,84,85,85,86,86,87,87,88,88,89,89,90,90,92,92,94,94,95,95,96,96,97,97,98,98,99,99,101,101,103,103,105,105,106,106,107,107,108,108,111,111,112,112],"right_children":[2,4,6,8,10,12,14,16,18,20,22,24,26,28,30,32,34,36,38,40,42,44,46,48,50,52,54,-1,56,58,60,62,64,66,68,-1,70,-1,-1,72,74,76,78,80,82,84,86,88,90,92,94,96,98,-1,100,102,104,106,108,110,112,114,116,118,120,122,124,126,128,-1,130,132,134,136,138,140,142,144,146,148,150,152,154,156,158,160,162,164,166,168,170,-1,172,-1,174,176,178,180,182,184,-1,186,-1,188,-1,190,192,194,196,-1,-1,198,200,-1,-1,-1,-1,-1,-1,-1,-1,-1,-1,-1,-1,-1,-1,-1,-1,-1,-1,-1,-1,-1,-1,-1,-1,-1,-1,-1,-1,-1,-1,-1,-1,-1,-1,-1,-1,-1,-1,-1,-1,-1,-1,-1,-1,-1,-1,-1,-1,-1,-1,-1,-1,-1,-1,-1,-1,-1,-1,-1,-1,-1,-1,-1,-1,-1,-1,-1,-1,-1,-1,-1,-1,-1,-1,-1,-1,-1,-1,-1,-1,-1,-1,-1,-1,-1,-1,-1,-1],"split_conditions":[1.85E1,3.5E0,3.05E1,2.5E0,1.45E1,5E-1,1.15E1,1.65E1,3.5E0,8.5E0,1.55E1,2.8E1,2.75E1,4E0,1.65E1,3.5E0,5E-1,1.8E1,5E-1,9.5E0,5E-1,1.25E1,1.55E1,2.05E1,1.95E1,1.15E1,2.85E1,1.815528E-1,1.05E1,1.45E1,1.1E1,5E-1,1.45E1,1.25E1,1.25E1,-1.7171818E-1,1.3E1,-5.5673804E-2,3.6215776E-1,8.5E0,5.5E0,2.45E1,5.5E0,9.5E0,1.95E1,1.3E1,5E-1,2.35E1,1.55E1,2E0,3.05E1,5.5E0,2.05E1,-3.680786E-1,1.7E1,3.5E0,4.5E0,3.25E1,5E-1,3.25E1,5E-1,8.5E0,2.5E0,1.15E1,1.55E1,8.5E0,4.5E0,1.05E1,2.25E1,3.0910176E-1,4.5E0,7.5E0,5.5E0,1.05E1,1.15E1,1.05E1,5.5E0,2.5E0,2.55E1,3.25E1,2.55E1,1.35E1,2.05E1,3.5E0,1.95E1,1.65E1,2.8E1,2.05E1,2.5E0,5E-1,1.75E1,2.773563E-1,1.5E0,-3.5006312E-1,2.2E1,4.5E0,5E-1,1.7E1,2.15E1,1.85E1,-3.1191504E-1,3.25E1,1.740048E-1,9.5E0,-2.936779E-1,1.35E1,1.35E1,1.95E1,3.25E1,1.1414129E-1,3.2684675E-1,1.9E1,4.5E0,1.756857E-1,-9.509782E-2,2.860349E-3,3.613289E-1,1.012068E-1,-2.2021152E-1,3.011998E-1,-7.2477035E-2,4.9809646E-2,1.7066023E-1,7.282867E-2,-1.4783172E-1,-8.144586E-2,-3.2855824E-1,-1.648136E-1,2.602584E-1,-4.34526E-2,9.070575E-2,-1.7648237E-2,-4.3638223E-1,-4.7712824E-1,5.135394E-1,2.0607853E-1,-1.8569171E-1,-3.9759377E-1,-5.3235866E-2,9.60541E-2,-9.92767E-2,2.8530434E-1,-2.527963E-1,-3.4532896E-1,1.13315985E-1,-3.225758E-1,-5.337412E-2,7.817168E-2,3.1993243E-1,3.306045E-1,3.686781E-2,2.1887241E-1,-1.9504122E-2,-3.0175972E-1,1.1367357E-2,1.8591389E-1,3.471551E-1,2.091977E-1,-1.9078977E-1,1.8861504E-1,-3.72924E-2,-3.72282E-1,2.0641363E-3,-3.0429369E-2,1.14567176E-1,-2.5133727E-2,-1.932454E-1,1.7491834E-1,3.3958283E-1,-3.1339446E-1,2.1222052E-1,7.431049E-2,-1.9740058E-1,-1.9281557E-1,6.2587075E-2,-1.733562E-1,4.7243527E-1,-2.9329827E-1,-3.5876417E-1,-8.861844E-2,-3.1723055E-1,8.366805E-2,3.4205762E-1,-1.1436996E-1,2.2401182E-1,1.4409001E-1,-2.5390524E-1,-1.1927535E-1,8.942618E-2,3.2520294E-1,-6.0567893E-2,6.3000694E-2,3.0231458E-1,2.8071633E-1,-4.3686703E-2,1.1835455E-1,3.5868788E-1,-2.9134837E-1,-2.4520053E-2,2.4409571E-1,-1.1608936E-2],"split_indices":[28,29,28,29,29,23,29,27,28,29,27,29,29,27,29,28,23,26,26,28,18,28,29,29,28,29,28,0,26,29,27,24,28,25,28,0,25,0,0,28,29,27,25,28,26,28,22,28,27,27,29,29,28,0,26,26,29,28,25,28,26,27,28,28,28,24,28,28,27,0,23,29,29,28,28,28,28,25,25,29,29,28,26,28,27,29,27,28,24,25,27,0,24,0,28,29,19,29,27,24,0,28,0,25,0,29,29,27,28,0,0,29,26,0,0,0,0,0,0,0,0,0,0,0,0,0,0,0,0,0,0,0,0,0,0,0,0,0,0,0,0,0,0,0,0,0,0,0,0,0,0,0,0,0,0,0,0,0,0,0,0,0,0,0,0,0,0,0,0,0,0,0,0,0,0,0,0,0,0,0,0,0,0,0,0,0,0,0,0,0,0,0,0,0,0,0,0,0,0,0,0],"split_type":[0,0,0,0,0,0,0,0,0,0,0,0,0,0,0,0,0,0,0,0,0,0,0,0,0,0,0,0,0,0,0,0,0,0,0,0,0,0,0,0,0,0,0,0,0,0,0,0,0,0,0,0,0,0,0,0,0,0,0,0,0,0,0,0,0,0,0,0,0,0,0,0,0,0,0,0,0,0,0,0,0,0,0,0,0,0,0,0,0,0,0,0,0,0,0,0,0,0,0,0,0,0,0,0,0,0,0,0,0,0,0,0,0,0,0,0,0,0,0,0,0,0,0,0,0,0,0,0,0,0,0,0,0,0,0,0,0,0,0,0,0,0,0,0,0,0,0,0,0,0,0,0,0,0,0,0,0,0,0,0,0,0,0,0,0,0,0,0,0,0,0,0,0,0,0,0,0,0,0,0,0,0,0,0,0,0,0,0,0,0,0,0,0,0,0,0,0,0,0,0,0],"sum_hessian":[1.5608629E4,1.1519648E4,4.08898E3,4.991872E3,6.5277764E3,3.8371565E3,2.5182343E2,2.9489028E3,2.0429692E3,2.46078E3,4.0669963E3,5.550966E2,3.28206E3,1.5674914E1,2.3614851E2,2.6366304E3,3.1227258E2,6.844274E0,2.036125E3,6.5227985E2,1.8085001E3,2.9690889E3,1.0979075E3,4.328142E2,1.2228242E2,1.2410664E3,2.0409935E3,1.6338632E0,1.4041051E1,2.0148114E2,3.4667377E1,1.2430979E3,1.3935323E3,1.168185E2,1.9545409E2,1.7447786E0,5.0994954E0,1.9499457E0,2.034175E3,1.0836221E2,5.439176E2,1.5875763E3,2.209238E2,2.4723308E3,4.9675824E2,3.624739E2,7.354336E2,3.917275E2,4.1086704E1,1.5834099E1,1.0644832E2,1.0723695E3,1.6869698E2,2.034254E3,6.7395544E0,7.031488E0,7.009563E0,7.812615E1,1.2335499E2,8.157453E0,2.6509924E1,2.3370956E1,1.2197269E3,3.9479486E2,9.987375E2,6.139742E1,5.5421074E1,1.5664641E2,3.8807686E1,2.6419885E0,2.4575071E0,7.1137405E1,3.722481E1,1.11015E2,4.3290262E2,1.4019565E3,1.8561978E2,3.961721E1,1.813066E2,7.309498E2,1.741381E3,3.7119876E2,1.2555947E2,3.3174844E2,3.0725471E1,4.1660596E2,3.188276E2,2.7386395E2,1.17863556E2,2.5902912E1,1.5183793E1,2.080408E0,1.3753691E1,9.657317E1,9.875144E0,1.696224E2,9.027471E2,4.4761787E1,1.2393518E2,3.1072848E0,3.6322699E0,4.5572667E0,2.4742212E0,2.3103483E0,4.699215E0,4.6420322E1,3.1705832E1,7.46895E0,1.1588604E2,1.8884225E0,6.26903E0,2.3759484E0,2.4133974E1,1.1015137E1,1.2355819E1,1.0530205E1,1.2091968E3,1.02851875E2,2.91943E2,9.398781E2,5.885936E1,4.307926E1,1.8318155E1,1.161475E1,4.3806324E1,1.9236534E1,1.3740987E2,2.4233555E1,1.4574132E1,1.425107E0,1.0324001E0,5.719104E1,1.39463625E1,4.790545E0,3.2434265E1,2.2220903E1,8.87941E1,4.0838495E2,2.451765E1,1.0526271E3,3.493294E2,1.1638175E1,1.7398161E2,1.1179978E1,2.8437233E1,1.6268028E2,1.8626308E1,5.340498E2,1.9690001E2,1.6768645E3,6.451645E1,1.3567438E2,2.3552438E2,8.0653725E1,4.4905746E1,4.300641E1,2.8874203E2,1.4686862E1,1.603861E1,9.9638885E1,3.1696707E2,2.8315988E2,3.5667725E1,1.0995766E2,1.6390628E2,5.6309185E1,6.155437E1,6.5715504E0,1.9331362E1,2.2640078E0,1.29197855E1,8.111186E0,5.642505E0,2.6178656E0,7.2572784E0,1.6168558E2,7.936821E0,4.8970776E2,4.1303928E2,1.0117285E1,3.4644505E1,8.479918E1,3.9136005E1,1.5677866E0,1.5394981E0,1.8229336E0,2.734333E0,1.277164E0,1.0331842E0,4.3873928E1,2.5463958E0,2.9535166E1,2.1706657E0,5.5165195E0,1.9524302E0,1.5395229E0,1.1434651E2,1.182282E0,1.1936666E0,4.4408345E0,1.969314E1],"tree_param":{"num_deleted":"0","num_feature":"30","num_nodes":"201","size_leaf_vector":"0"}},{"base_weights":[1.475424E-1,4.4634354E-1,-7.354475E-1,8.088193E-1,1.9493599E-1,-3.3654538E-1,-1.1305323E0,6.0493076E-1,1.1239649E0,-2.1093558E-1,4.55737E-1,-7.0744646E-1,3.9577577E-1,-4.5670906E-1,-1.1441975E0,1.0646559E0,2.9102805E-1,2.652913E-1,1.1272023E0,-7.357215E-1,-4.253831E-2,8.996121E-1,2.905455E-1,-2.9884386E-1,-1.000274E0,4.166926E-2,7.480952E-1,-7.018999E-1,2.676688E-1,-1.1500223E0,-1.9418408E-1,2.0427234E-1,1.0983088E0,-5.734121E-1,7.182756E-1,-4.8698312E-1,5.658998E-1,-1.495777E-1,1.1288458E0,1.5678851E-1,-9.383166E-1,2.0658342E-2,-8.917432E-1,9.6426886E-1,1.9868368E-1,5.1789665E-1,-3.4132814E-1,1.2032865E-1,-6.304448E-1,-8.546642E-1,-1.1112602E0,7.257179E-1,-1.660813E-1,8.136321E-1,-5.807663E-1,1.1847615E-1,-9.249613E-1,8.445883E-1,-1.1138466E-1,4.5026565E-1,-7.465678E-1,3.0278608E-1,-8.88462E-1,1.1092318E0,-1.1667657E0,1.5729515E-1,-8.7645864E-1,8.1524706E-1,-2.0704362E-1,9.156495E-1,6.789857E-2,6.846245E-1,1.1305704E0,-2.5538298E-1,1.0132896E0,-2.5559175E-1,-1.1495008E0,2.209157E-1,-2.4643484E-1,-9.2310065E-1,7.4964166E-1,9.7429E-1,-1.3459499E0,7.910271E-1,-1.7321388E-1,6.7575794E-1,-3.277094E-2,4.244494E-2,-9.000858E-1,3.2987893E-1,-8.60988E-2,1.5275369E-2,-7.3101306E-1,-5.1985765E-1,-8.9975893E-1,-1.1166272E0,-5.4636955E-1,-1.1263672E0,9.4653E-1,4.3499667E-2,-1.2249727E0,-1.5827494E-2,8.950275E-1,-6.478333E-2,-1.2225847E0,-7.539741E-1,5.8131313E-1,-9.6129674E-1,-1.4496706E-1,-8.6958444E-1,3.8010246E-1,-1.649735E-1,8.02102E-1,1.1880846E-1,-9.605225E-1,4.0623146E-1,-4.9502322E-1,-1.3267522E-1,1.1278595E0,3.1075054E-1,-8.259068E-1,3.1014913E-1,-9.425871E-1,-6.992934E-1,8.4481806E-1,7.295933E-2,-1.4768834E0,-1.18994184E-1,2.6092E-1,9.2898387E-1,2.8316522E-1,1.1317217E0,6.790727E-1,-8.513118E-1,7.251493E-2,-1.1889869E0,1.4143957E0,-3.9318657E-1,1.0464008E0,-1.2261033E0,-1.270015E-1,3.9355582E-1,-2.88118E-1,-1.6391898E-3,-7.4484056E-1,-9.948861E-1,-2.4624817E-1,6.8149674E-1,1.0416156E0,1.7562377E-1,-2.1169627E0,-1.3580102E-1,2.1643655E0,-7.755062E-1,1.288369E-1,3.211204E-1,9.7510004E-1,3.4329227E-1,-2.6662692E-1,-1.9556575E-1,3.413861E-1,-1.031043E0,4.873694E-3,8.7644637E-1,-4.443804E-2,-3.4759462E-1,1.9544613E-1,3.9659327E-1,-5.82124E-1,-1.1650419E0,-6.5470487E-1,1.1865723E0,-8.739747E-1,-9.118563E-1,5.034838E-2,-5.988428E-1,-1.1212251E0,3.40632E-1,-8.930315E-1,-1.2056593E0,-3.6775264E-1,-1.2371358E0,1.0620596E0,1.15734085E-1,-8.0732137E-1,-3.6350712E-1,-1.4081298E0,3.384009E-1,-4.498852E-1,6.427909E-1,9.965418E-1,8.62141E-1,-4.3533713E-1,8.953875E-1,-6.5738154E-3,-9.9969494E-1,-2.525339E-1,-1.910045E-1,1.0174614E0],"categories":[],"categories_nodes":[],"categories_segments":[],"categories_sizes":[],"default_left":[true,true,true,true,true,true,true,true,true,true,true,true,true,true,true,true,true,true,true,true,true,true,true,true,true,true,true,true,true,false,true,true,true,true,true,false,true,false,true,true,true,true,true,true,true,true,true,true,true,true,true,true,true,true,true,true,true,false,true,true,true,true,false,true,false,true,true,true,true,false,true,true,true,true,true,true,true,true,true,true,false,true,true,true,true,true,true,true,true,true,true,true,true,true,true,true,true,true,true,true,true,true,true,true,false,false,true,true,false,false,true,false,false,false,false,false,false,false,false,false,false,false,false,false,false,false,false,false,false,false,false,false,false,false,false,false,false,false,false,false,false,false,false,false,false,false,false,false,false,false,false,false,false,false,false,false,false,false,false,false,false,false,false,false,false,false,false,false,false,false,false,false,false,false,false,false,false,false,false,false,false,false,false,false,false,false,false,false,false,false,false,false,false,false,false,false,false,false,false],"id":4,"left_children":[1,3,5,7,9,11,13,15,17,19,21,23,25,27,29,31,33,35,37,39,41,43,45,47,49,51,53,55,57,-1,59,61,63,65,67,-1,69,-1,71,73,75,77,79,81,83,85,87,89,91,93,95,97,99,101,103,105,107,-1,109,111,113,115,-1,117,-1,119,121,123,125,-1,127,129,131,133,135,137,139,141,143,145,-1,147,149,151,153,155,157,159,161,163,165,167,169,171,173,175,177,179,181,183,185,187,189,191,-1,-1,193,195,-1,-1,197,-1,-1,-1,-1,-1,-1,-1,-1,-1,-1,-1,-1,-1,-1,-1,-1,-1,-1,-1,-1,-1,-1,-1,-1,-1,-1,-1,-1,-1,-1,-1,-1,-1,-1,-1,-1,-1,-1,-1,-1,-1,-1,-1,-1,-1,-1,-1,-1,-1,-1,-1,-1,-1,-1,-1,-1,-1,-1,-1,-1,-1,-1,-1,-1,-1,-1,-1,-1,-1,-1,-1,-1,-1,-1,-1,-1,-1,-1,-1,-1,-1,-1,-1,-1,-1,-1,-1,-1],"loss_changes":[3.5231533E3,9.090277E2,5.3172766E2,2.6183765E2,6.238071E2,4.5699756E2,1.5092529E1,3.5798584E2,4.1590576E0,2.0373308E2,2.6279468E2,1.3329266E2,7.057554E1,6.4704294E0,8.970703E0,2.8934082E1,5.458353E2,1.9335113E0,3.520752E0,1.014198E2,9.375642E1,4.3883972E1,3.7598694E2,6.5063225E1,9.554382E0,4.0383053E1,2.5173721E1,4.996155E0,2.2085624E0,0E0,4.368754E0,4.4818926E0,2.5266602E1,1.0842786E2,8.888992E1,0E0,9.307612E-1,0E0,4.4836426E-1,3.7140038E1,6.5540344E1,8.706017E1,6.9200134E0,2.1919128E1,1.8508171E1,1.6729266E2,1.4860013E2,8.99743E0,1.6973122E1,3.8422394E0,4.9804688E-1,2.8134037E1,4.846141E1,1.8291336E1,4.5287094E0,3.101367E0,4.588852E-1,0E0,2.834236E0,1.3990937E0,1.3131473E0,3.225364E0,0E0,2.2468506E1,0E0,2.2014376E1,2.7428497E1,4.0682434E1,3.3739517E1,0E0,1.5485513E-1,5.909753E-1,5.6762695E-2,1.3999772E1,3.1841434E1,1.9966942E1,2.7136932E1,8.185651E1,8.509759E1,5.5459137E0,0E0,1.6772827E1,5.3746586E0,4.1463158E1,9.569133E0,1.5845093E2,3.7878902E1,2.9357363E1,3.3441193E1,2.1132172E1,7.8162136E0,8.472201E0,6.72303E0,2.2944286E1,2.921814E0,1.8826294E-1,1.9640472E0,8.181572E-3,1.6369781E1,1.1343759E1,5.1800766E0,4.022918E0,5.672287E0,3.3873107E0,0E0,0E0,9.057652E-1,2.9161072E-1,0E0,0E0,1.9314121E0,0E0,0E0,0E0,0E0,0E0,0E0,0E0,0E0,0E0,0E0,0E0,0E0,0E0,0E0,0E0,0E0,0E0,0E0,0E0,0E0,0E0,0E0,0E0,0E0,0E0,0E0,0E0,0E0,0E0,0E0,0E0,0E0,0E0,0E0,0E0,0E0,0E0,0E0,0E0,0E0,0E0,0E0,0E0,0E0,0E0,0E0,0E0,0E0,0E0,0E0,0E0,0E0,0E0,0E0,0E0,0E0,0E0,0E0,0E0,0E0,0E0,0E0,0E0,0E0,0E0,0E0,0E0,0E0,0E0,0E0,0E0,0E0,0E0,0E0,0E0,0E0,0E0,0E0,0E0,0E0,0E0,0E0,0E0,0E0,0E0,0E0,0E0,0E0],"parents":[2147483647,0,0,1,1,2,2,3,3,4,4,5,5,6,6,7,7,8,8,9,9,10,10,11,11,12,12,13,13,14,14,15,15,16,16,17,17,18,18,19,19,20,20,21,21,22,22,23,23,24,24,25,25,26,26,27,27,28,28,30,30,31,31,32,32,33,33,34,34,36,36,38,38,39,39,40,40,41,41,42,42,43,43,44,44,45,45,46,46,47,47,48,48,49,49,50,50,51,51,52,52,53,53,54,54,55,55,56,56,58,58,59,59,60,60,61,61,63,63,65,65,66,66,67,67,68,68,70,70,71,71,72,72,73,73,74,74,75,75,76,76,77,77,78,78,79,79,81,81,82,82,83,83,84,84,85,85,86,86,87,87,88,88,89,89,90,90,91,91,92,92,93,93,94,94,95,95,96,96,97,97,98,98,99,99,100,100,101,101,102,102,103,103,106,106,107,107,110,110],"right_children":[2,4,6,8,10,12,14,16,18,20,22,24,26,28,30,32,34,36,38,40,42,44,46,48,50,52,54,56,58,-1,60,62,64,66,68,-1,70,-1,72,74,76,78,80,82,84,86,88,90,92,94,96,98,100,102,104,106,108,-1,110,112,114,116,-1,118,-1,120,122,124,126,-1,128,130,132,134,136,138,140,142,144,146,-1,148,150,152,154,156,158,160,162,164,166,168,170,172,174,176,178,180,182,184,186,188,190,192,-1,-1,194,196,-1,-1,198,-1,-1,-1,-1,-1,-1,-1,-1,-1,-1,-1,-1,-1,-1,-1,-1,-1,-1,-1,-1,-1,-1,-1,-1,-1,-1,-1,-1,-1,-1,-1,-1,-1,-1,-1,-1,-1,-1,-1,-1,-1,-1,-1,-1,-1,-1,-1,-1,-1,-1,-1,-1,-1,-1,-1,-1,-1,-1,-1,-1,-1,-1,-1,-1,-1,-1,-1,-1,-1,-1,-1,-1,-1,-1,-1,-1,-1,-1,-1,-1,-1,-1,-1,-1,-1,-1,-1,-1],"split_conditions":[1.85E1,3.5E0,2.8E1,2.5E0,1.45E1,1.15E1,5E-1,3.5E0,3.5E0,8.5E0,1.55E1,5E-1,2.7E1,3.05E1,2.85E1,2.5E0,1.25E1,1.8E1,5E-1,9.5E0,5E-1,1.05E1,1.55E1,5.5E0,5E-1,1.25E1,2.45E1,1.95E1,1.5E0,-3.450067E-1,1.3E1,2.5E0,1.9E1,1.15E1,1.55E1,-1.4609495E-1,1.3E1,-4.4873312E-2,5E-1,8.5E0,5.5E0,1.15E1,3.15E1,2E0,8.5E0,1.25E1,5E-1,2.25E1,5E-1,4.5E0,2.95E1,2E1,4.5E0,5E-1,2E0,1.25E1,2.4E1,2.5337648E-1,1.15E1,3E0,9E0,2.95E1,-2.6653862E-1,5.5E0,-3.500297E-1,5.5E0,1.5E0,2.5E0,5E-1,2.7469486E-1,4.5E0,1.15E1,1.95E1,1.35E1,5.5E0,2.05E1,1.15E1,1.45E1,2.5E0,2.55E1,2.2489251E-1,9.5E0,1.35E1,7.5E0,1.35E1,2.45E1,4.5E0,2.05E1,2.8E1,1.15E1,1.05E1,1.05E1,8.5E0,1.1E1,3.05E1,2.35E1,1.4E1,3E0,3.5E0,2.15E1,7.5E0,1.35E1,1.45E1,1.15E1,-3.6677542E-1,-2.2619224E-1,5E0,2.2E1,-4.349012E-2,-2.6087534E-1,1.25E1,-4.949205E-2,2.4063061E-1,3.5642542E-2,-2.8815675E-1,1.21869445E-1,-1.4850697E-1,-3.9802566E-2,3.3835787E-1,9.3225166E-2,-2.4777205E-1,9.304474E-2,-2.8277615E-1,-2.0978802E-1,2.5344542E-1,2.1887802E-2,-4.4306505E-1,-3.5698257E-2,7.8276E-2,2.7869517E-1,8.494957E-2,3.3951652E-1,2.037218E-1,-2.5539356E-1,2.1754479E-2,-3.5669607E-1,4.2431873E-1,-1.17955975E-1,3.1392026E-1,-3.67831E-1,-3.810045E-2,1.1806675E-1,-8.643541E-2,-4.9175695E-4,-2.2345218E-1,-2.9846585E-1,-7.387445E-2,2.0444903E-1,3.1248468E-1,5.2687135E-2,-6.350888E-1,-4.0740307E-2,6.493097E-1,-2.3265187E-1,3.865107E-2,9.633613E-2,2.9253003E-1,1.02987684E-1,-7.998808E-2,-5.8669727E-2,1.0241584E-1,-3.0931294E-1,1.4621082E-3,2.629339E-1,-1.3331413E-2,-1.0427839E-1,5.863384E-2,1.1897799E-1,-1.746372E-1,-3.4951258E-1,-1.9641148E-1,3.559717E-1,-2.6219243E-1,-2.735569E-1,1.5104515E-2,-1.7965284E-1,-3.3636755E-1,1.021896E-1,-2.6790947E-1,-3.616978E-1,-1.103258E-1,-3.7114075E-1,3.186179E-1,3.4720227E-2,-2.4219643E-1,-1.09052144E-1,-4.2243895E-1,1.0152028E-1,-1.3496557E-1,1.9283728E-1,2.9896256E-1,2.5864232E-1,-1.3060114E-1,2.6861626E-1,-1.9721447E-3,-2.999085E-1,-7.576018E-2,-5.7301354E-2,3.0523843E-1],"split_indices":[28,29,29,29,29,29,24,28,28,29,29,21,28,29,28,28,28,26,26,28,17,28,27,29,19,29,29,28,26,0,26,21,27,28,28,0,25,0,25,28,29,29,21,18,27,28,22,28,24,26,28,28,22,25,23,26,25,0,26,26,27,27,0,27,0,22,25,27,21,0,23,28,18,27,29,26,28,27,22,25,0,28,27,27,27,29,27,27,27,27,27,26,29,27,26,28,27,22,27,28,24,27,29,27,0,0,25,26,0,0,27,0,0,0,0,0,0,0,0,0,0,0,0,0,0,0,0,0,0,0,0,0,0,0,0,0,0,0,0,0,0,0,0,0,0,0,0,0,0,0,0,0,0,0,0,0,0,0,0,0,0,0,0,0,0,0,0,0,0,0,0,0,0,0,0,0,0,0,0,0,0,0,0,0,0,0,0,0,0,0,0,0,0,0,0,0,0,0,0],"split_type":[0,0,0,0,0,0,0,0,0,0,0,0,0,0,0,0,0,0,0,0,0,0,0,0,0,0,0,0,0,0,0,0,0,0,0,0,0,0,0,0,0,0,0,0,0,0,0,0,0,0,0,0,0,0,0,0,0,0,0,0,0,0,0,0,0,0,0,0,0,0,0,0,0,0,0,0,0,0,0,0,0,0,0,0,0,0,0,0,0,0,0,0,0,0,0,0,0,0,0,0,0,0,0,0,0,0,0,0,0,0,0,0,0,0,0,0,0,0,0,0,0,0,0,0,0,0,0,0,0,0,0,0,0,0,0,0,0,0,0,0,0,0,0,0,0,0,0,0,0,0,0,0,0,0,0,0,0,0,0,0,0,0,0,0,0,0,0,0,0,0,0,0,0,0,0,0,0,0,0,0,0,0,0,0,0,0,0,0,0,0,0,0,0,0,0,0,0,0,0],"sum_hessian":[1.3351208E4,9.975891E3,3.375317E3,4.0845823E3,5.8913086E3,1.680466E3,1.6948511E3,2.4818374E3,1.602745E3,2.3047432E3,3.5865654E3,1.1155192E3,5.6494666E2,3.437258E1,1.6604785E3,1.0060454E3,1.4757919E3,6.3314195E0,1.5964136E3,5.590804E2,1.745663E3,9.7154517E2,2.6150203E3,4.6654172E2,6.489775E2,2.823165E2,2.826302E2,2.5703402E1,8.669178E0,1.6501504E3,1.03280525E1,3.8135204E1,9.6791016E2,4.8803E2,9.877619E2,1.6306691E0,4.7007504E0,1.936583E0,1.5944769E3,1.0347199E2,4.556084E2,1.6256593E3,1.2000365E2,8.8915027E2,8.2394905E1,1.9232177E3,6.9180255E2,2.0634312E2,2.6019858E2,2.8446753E2,3.6450998E2,6.518669E1,2.1712979E2,2.6971603E2,1.2914147E1,5.5949903E0,2.0108412E1,2.9504468E0,5.7187314E0,4.8521085E0,5.4759436E0,3.5644627E1,2.4905753E0,9.6377277E2,4.137413E0,1.4320775E2,3.4482227E2,8.9417346E2,9.358846E1,2.2687452E0,2.432005E0,7.7056956E0,1.5867712E3,7.032941E1,3.3142582E1,1.0815876E2,3.4744962E2,9.2917126E2,6.9648804E2,1.1818345E2,1.8202002E0,8.858858E2,3.2644665E0,3.1344173E1,5.1050735E1,1.4945454E3,4.2867227E2,4.1066702E2,2.8113556E2,1.0210026E2,1.04242874E2,3.5178093E1,2.250205E2,3.5253727E1,2.4921379E2,3.601119E2,4.3980746E0,6.507055E0,5.8679638E1,1.8205542E2,3.5074375E1,2.4174225E1,2.4554181E2,7.769156E0,5.144992E0,1.7213012E0,3.873689E0,1.8991278E1,1.117134E0,1.946556E0,3.7721753E0,1.9584936E0,2.893615E0,1.1736437E0,4.3023E0,3.1987843E1,3.6567852E0,1.4151703E1,9.496211E2,1.2446547E2,1.874228E1,1.8007412E1,3.2681485E2,1.669042E1,8.7748303E2,7.745252E1,1.6135937E1,1.4304712E0,1.0015337E0,3.9732492E0,3.7324464E0,1.5812328E3,5.538469E0,2.4395754E1,4.593365E1,4.803678E0,2.8338905E1,9.845232E1,9.706447E0,3.2304868E2,2.4400934E1,6.9401953E2,2.3515169E2,4.6775165E2,2.2873637E2,1.0642624E2,1.1757207E1,1.6769908E2,7.181867E2,1.3575646E0,1.9069018E0,1.9252386E1,1.2091787E1,1.652742E1,3.4523315E1,6.850379E2,8.095075E2,1.6418265E2,2.6448962E2,2.288262E2,1.8184082E2,2.4547359E2,3.5661953E1,4.095599E1,6.1144268E1,5.3924133E1,5.031874E1,2.1677532E1,1.3500558E1,3.1512836E1,1.9350766E2,5.654561E0,2.9599165E1,2.4612029E2,3.0935028E0,4.3248353E0,3.5578708E2,1.2407556E0,3.1573188E0,5.357759E0,1.1492963E0,2.4607008E0,5.6218937E1,1.6860489E2,1.3450524E1,6.6730165E0,2.8401361E1,1.3432515E1,1.0741709E1,7.2566055E1,1.7297575E2,1.8399562E0,5.9291997E0,2.1838973E0,1.6897918E0,1.762589E1,1.3653859E0,2.3588455E0,1.4133301E0],"tree_param":{"num_deleted":"0","num_feature":"30","num_nodes":"199","size_leaf_vector":"0"}},{"base_weights":[1.2346334E-1,3.7216163E-1,-6.55078E-1,7.2702086E-1,1.5327856E-1,-2.8154072E-1,-1.076086E0,5.2461976E-1,1.0665519E0,-1.6475278E-1,3.6701968E-1,-5.9993994E-1,3.1184828E-1,-3.82126E-1,-1.0921576E0,9.9345046E-1,2.3775922E-1,2.2901715E-1,1.0703384E0,-6.057177E-1,-2.385068E-2,7.815839E-1,2.270652E-1,-2.315012E-1,-9.063335E-1,2.646507E-2,6.1630523E-1,-6.133241E-1,2.2630726E-1,-1.0991839E0,-1.5708587E-1,4.0860662E-1,1.0666202E0,-4.6972173E-1,5.941799E-1,-4.1605306E-1,4.9109873E-1,-1.2060432E-1,1.0722911E0,-2.8815246E-1,-9.935222E-1,4.4477496E-2,-6.0614425E-1,8.531117E-1,1.4108735E-1,6.862126E-1,1.9914895E-2,8.515973E-2,-5.100306E-1,-7.4004793E-1,-1.0425115E0,-1.1652527E-1,7.0651245E-1,6.739192E-1,-4.2953908E-1,9.2750624E-2,-8.3717096E-1,7.1888804E-1,-7.7303775E-2,-9.040513E-1,-1.1065582E0,3.4986365E-1,-6.3115823E-1,-6.5217483E-1,5.110847E-1,-8.919899E-3,1.081329E0,1.0922422E-1,-7.49444E-1,7.526102E-1,1.4224914E-1,8.079292E-3,8.220331E-1,6.0178757E-1,1.0743793E0,-1.4482462E0,-2.4010962E-1,2.8262505E-1,-1.1271865E0,1.9059397E-1,-2.3160815E-1,-3.284231E-1,-1.092251E0,5.1205426E-1,9.450382E-1,2.5888243E-1,-8.762994E-1,-3.384233E-1,9.0320295E-1,-5.7534385E-1,1.386919E-1,4.5194443E-2,7.817286E-1,-2.0836075E-1,-7.4843675E-1,-4.1220063E-1,-8.0710083E-1,-1.048591E0,-4.747939E-1,-3.9158322E-2,-1.2736562E0,1.0586882E0,-1.04743175E-1,3.4837205E-2,7.481457E-1,-2.6072105E-2,-9.444429E-1,-6.296863E-1,4.758893E-1,-8.766713E-1,-1.2438028E-1,-6.8606263E-1,3.269806E-1,6.919527E-2,-1.0366588E0,-1.3239789E-1,6.278447E-1,-9.562805E-1,-2.7092298E-2,-4.7805373E-2,-1.1808097E0,5.610015E-1,-1.0496734E0,7.724273E-1,-6.0782355E-1,1.0859969E0,-8.2254034E-1,-3.4678066E-1,3.1692764E-1,-2.4190733E-1,-8.96241E-1,8.667278E-1,-1.06979676E-1,2.634927E-1,-1.7645725E0,1.8813182E-1,8.795437E-1,1.0757866E0,5.88917E-1,-1.8374033E0,-3.4439334E-1,1.6308239E-2,-5.358333E-1,-5.5575913E-1,1.1090622E0,-1.1433159E0,2.1911395E-1,2.6415947E-1,-6.016641E-1,-4.142704E-1,1.6706766E-1,-3.540026E-2,-1.0912585E0,-1.1211632E0,2.342744E-1,6.494573E-1,-3.8324255E-2,9.6488476E-1,-4.8108646E-1,1.578734E-1,1.1996789E0,4.149267E-1,-1.2404068E0,1.0234344E-2,-1.1489682E0,1.0688735E0,-1.7158109E-1,-1.3720247E-1,-1.2669152E0,4.9557415E-1,-2.5923276E-1,1.9694516E-1,-1.6976076E-1,1.3918865E0,-3.1907344E-1,-8.948034E-1,-6.94224E-2,-3.8102603E-1,-8.067052E-1,3.1688556E-1,-7.921888E-1,-7.5768834E-1,-1.1093189E0,-4.8836523E-1,-1.0548781E0,2.800308E-1,-8.1896996E-1,9.838459E-2,-4.5376217E-1,-5.3898585E-1,-1.3624443E0,4.408676E-1,-1.0869592E0,5.8558017E-1,-1.1187688E-1,8.493741E-1,4.8908308E-1,7.7200586E-1,-3.1423178E-1,-1.1586937E0,-4.3975678E-1,7.428156E-1,-5.3337575E-3,-9.188505E-1,-2.1659338E-1,9.252771E-1,-2.5901443E-1,6.896126E-1,-4.216826E-1,2.1960576E-1,7.7025753E-1,2.2233075E-1,-2.5278467E-1],"categories":[],"categories_nodes":[],"categories_segments":[],"categories_sizes":[],"default_left":[true,true,true,true,true,true,true,true,true,true,true,true,true,true,true,true,true,true,true,true,true,true,true,true,true,true,true,true,true,true,true,true,true,true,true,false,true,false,true,true,true,true,true,true,true,true,true,true,true,true,true,true,true,true,true,true,true,false,true,true,false,true,true,true,true,true,true,true,true,true,true,false,false,true,true,true,true,true,true,true,true,true,true,true,true,true,true,true,true,true,true,true,true,true,true,true,true,true,true,true,true,false,true,true,true,true,true,false,true,true,false,false,true,true,false,false,true,false,true,false,false,false,false,false,false,false,false,false,false,false,false,false,false,false,false,false,false,false,false,false,false,false,false,false,false,false,false,false,false,false,false,false,false,false,false,false,false,false,false,false,false,false,false,false,false,false,false,false,false,false,false,false,false,false,false,false,false,false,false,false,false,false,false,false,false,false,false,false,false,false,false,false,false,false,false,false,false,false,false,false,false,false,false,false,false,false,false,false,false,false,false,false,false],"id":5,"left_children":[1,3,5,7,9,11,13,15,17,19,21,23,25,27,29,31,33,35,37,39,41,43,45,47,49,51,53,55,57,59,61,63,65,67,69,-1,71,-1,73,75,77,79,81,83,85,87,89,91,93,95,97,99,101,103,105,107,109,-1,111,113,-1,115,117,119,121,123,125,127,129,131,133,-1,-1,135,137,139,141,143,145,147,149,151,153,155,157,159,161,163,165,167,169,171,173,175,177,179,181,183,185,187,189,-1,191,193,195,197,199,-1,201,203,-1,-1,205,207,-1,-1,209,-1,211,-1,-1,-1,-1,-1,-1,-1,-1,-1,-1,-1,-1,-1,-1,-1,-1,-1,-1,-1,-1,-1,-1,-1,-1,-1,-1,-1,-1,-1,-1,-1,-1,-1,-1,-1,-1,-1,-1,-1,-1,-1,-1,-1,-1,-1,-1,-1,-1,-1,-1,-1,-1,-1,-1,-1,-1,-1,-1,-1,-1,-1,-1,-1,-1,-1,-1,-1,-1,-1,-1,-1,-1,-1,-1,-1,-1,-1,-1,-1,-1,-1,-1,-1,-1,-1,-1,-1,-1,-1,-1,-1,-1,-1,-1],"loss_changes":[2.230457E3,6.780012E2,4.3830212E2,2.2830908E2,3.672013E2,2.7965396E2,1.4202393E1,2.8064642E2,3.6964111E0,1.3491182E2,1.8725247E2,1.0849872E2,4.492068E1,4.5289083E0,8.241211E0,3.347699E1,3.2733936E2,1.3650626E0,3.0059814E0,6.44698E1,6.554663E1,3.7213562E1,2.2982709E2,3.872464E1,1.1126251E1,2.6142881E1,1.5364601E1,3.6946564E0,1.4500105E0,8.284912E-1,2.7966688E0,1.0089094E1,1.1142761E1,7.054052E1,6.1679718E1,0E0,8.4708405E-1,0E0,5.6689453E-1,1.5842875E1,4.0628998E1,5.953645E1,2.2998077E1,2.2492676E1,1.0181278E1,1.6733755E2,1.17889175E2,5.7019515E0,1.6635529E1,4.9433746E0,4.9069214E-1,1.9851154E1,1.3454109E1,1.1240845E1,2.816019E0,2.0736315E0,3.8300037E-1,0E0,1.866244E0,6.749813E0,0E0,8.637194E-1,1.1318812E0,2.6098297E0,7.0083694E0,5.3765106E0,7.0631104E0,1.3616638E1,2.1648468E1,6.2747803E1,5.2535225E1,0E0,0E0,7.2273874E-1,2.0568848E-1,4.244217E0,2.1251719E1,1.6694513E1,4.899994E0,5.639682E1,3.7269745E1,2.4892689E1,2.6587677E0,1.195636E1,1.6769348E1,6.958192E0,4.6741476E0,3.732086E1,1.1062323E2,8.3870735E1,1.9750938E2,6.425887E0,7.91395E0,9.899477E0,2.4762726E0,1.2107411E1,2.1194153E0,4.800415E-1,1.4924787E0,1.1985798E1,1.7235184E-1,0E0,8.543076E0,2.1473234E0,5.163849E0,2.2421594E0,1.3694239E-1,0E0,6.150694E-1,2.573862E-1,0E0,0E0,1.8826451E0,2.4659698E0,0E0,0E0,5.5716038E-2,0E0,2.3025274E-1,0E0,0E0,0E0,0E0,0E0,0E0,0E0,0E0,0E0,0E0,0E0,0E0,0E0,0E0,0E0,0E0,0E0,0E0,0E0,0E0,0E0,0E0,0E0,0E0,0E0,0E0,0E0,0E0,0E0,0E0,0E0,0E0,0E0,0E0,0E0,0E0,0E0,0E0,0E0,0E0,0E0,0E0,0E0,0E0,0E0,0E0,0E0,0E0,0E0,0E0,0E0,0E0,0E0,0E0,0E0,0E0,0E0,0E0,0E0,0E0,0E0,0E0,0E0,0E0,0E0,0E0,0E0,0E0,0E0,0E0,0E0,0E0,0E0,0E0,0E0,0E0,0E0,0E0,0E0,0E0,0E0,0E0,0E0,0E0,0E0,0E0,0E0,0E0,0E0,0E0,0E0,0E0,0E0,0E0],"parents":[2147483647,0,0,1,1,2,2,3,3,4,4,5,5,6,6,7,7,8,8,9,9,10,10,11,11,12,12,13,13,14,14,15,15,16,16,17,17,18,18,19,19,20,20,21,21,22,22,23,23,24,24,25,25,26,26,27,27,28,28,29,29,30,30,31,31,32,32,33,33,34,34,36,36,38,38,39,39,40,40,41,41,42,42,43,43,44,44,45,45,46,46,47,47,48,48,49,49,50,50,51,51,52,52,53,53,54,54,55,55,56,56,58,58,59,59,61,61,62,62,63,63,64,64,65,65,66,66,67,67,68,68,69,69,70,70,73,73,74,74,75,75,76,76,77,77,78,78,79,79,80,80,81,81,82,82,83,83,84,84,85,85,86,86,87,87,88,88,89,89,90,90,91,91,92,92,93,93,94,94,95,95,96,96,97,97,98,98,99,99,100,100,102,102,103,103,104,104,105,105,106,106,108,108,109,109,112,112,113,113,116,116,118,118],"right_children":[2,4,6,8,10,12,14,16,18,20,22,24,26,28,30,32,34,36,38,40,42,44,46,48,50,52,54,56,58,60,62,64,66,68,70,-1,72,-1,74,76,78,80,82,84,86,88,90,92,94,96,98,100,102,104,106,108,110,-1,112,114,-1,116,118,120,122,124,126,128,130,132,134,-1,-1,136,138,140,142,144,146,148,150,152,154,156,158,160,162,164,166,168,170,172,174,176,178,180,182,184,186,188,190,-1,192,194,196,198,200,-1,202,204,-1,-1,206,208,-1,-1,210,-1,212,-1,-1,-1,-1,-1,-1,-1,-1,-1,-1,-1,-1,-1,-1,-1,-1,-1,-1,-1,-1,-1,-1,-1,-1,-1,-1,-1,-1,-1,-1,-1,-1,-1,-1,-1,-1,-1,-1,-1,-1,-1,-1,-1,-1,-1,-1,-1,-1,-1,-1,-1,-1,-1,-1,-1,-1,-1,-1,-1,-1,-1,-1,-1,-1,-1,-1,-1,-1,-1,-1,-1,-1,-1,-1,-1,-1,-1,-1,-1,-1,-1,-1,-1,-1,-1,-1,-1,-1,-1,-1,-1,-1,-1,-1],"split_conditions":[1.85E1,3.5E0,2.8E1,2.5E0,1.45E1,1.15E1,5E-1,3.5E0,3.5E0,9.5E0,1.55E1,5E-1,2.55E1,3.05E1,2.85E1,5E-1,1.25E1,1.8E1,5E-1,1.5E0,5E-1,1.05E1,4.5E0,5.5E0,5E-1,2.25E1,2.45E1,1.95E1,1.5E0,5E-1,1.3E1,2.5E0,2.5E0,1.15E1,1.65E1,-1.2481592E-1,1.5E0,-3.6181297E-2,5E-1,5E-1,9.5E0,1.55E1,1.75E1,9.5E0,2.1E1,2.05E1,9.5E0,3.1E1,1.5E0,5.5E0,2.95E1,5E-1,1.25E1,5E-1,2E0,1.25E1,2.4E1,2.1566643E-1,1.15E1,1.95E1,-3.3196747E-1,3E0,5E-1,1.5E0,2.8E1,1.25E1,1.9E1,9.5E0,5E-1,1.05E1,5E-1,2.4237877E-3,2.4660994E-1,1.75E1,1.95E1,1.15E1,2.5E0,8.5E0,1.7E1,2.45E1,2.05E1,1.45E1,3.25E1,5E-1,5E-1,2.05E1,5E-1,1.95E1,2.95E1,5E-1,1.55E1,1.55E1,3.25E1,2.05E1,4.5E0,1.25E1,1.85E1,2.35E1,1.4E1,1.45E1,4.5E0,3.1760645E-1,1.45E1,1.5E0,1.65E1,1.15E1,1.5E1,-1.889059E-1,5E0,2.2E1,-3.7314087E-2,-2.058188E-1,1.55E1,1.4E1,-3.1099764E-1,-3.971937E-2,1.75E1,-2.8688416E-1,9E0,-1.4341612E-2,-3.5424292E-1,1.6830045E-1,-3.1490204E-1,2.3172821E-1,-1.8234707E-1,3.2579908E-1,-2.4676211E-1,-1.040342E-1,9.50783E-2,-7.25722E-2,-2.6887232E-1,2.6001835E-1,-3.2093905E-2,7.9047814E-2,-5.293718E-1,5.643955E-2,2.6386312E-1,3.22736E-1,1.7667511E-1,-5.51221E-1,-1.03318006E-1,4.8924717E-3,-1.6075E-1,-1.6672775E-1,3.3271867E-1,-3.4299478E-1,6.5734185E-2,7.924785E-2,-1.8049924E-1,-1.2428112E-1,5.01203E-2,-1.0620078E-2,-3.2737756E-1,-3.3634898E-1,7.0282325E-2,1.948372E-1,-1.1497277E-2,2.8946543E-1,-1.4432594E-1,4.7362026E-2,3.599037E-1,1.2447802E-1,-3.7212205E-1,3.0703032E-3,-3.4469047E-1,3.2066208E-1,-5.147433E-2,-4.1160744E-2,-3.800746E-1,1.4867225E-1,-7.776983E-2,5.908355E-2,-5.092823E-2,4.1756597E-1,-9.5722035E-2,-2.6844102E-1,-2.0826722E-2,-1.1430781E-1,-2.4201156E-1,9.5065676E-2,-2.3765665E-1,-2.2730651E-1,-3.3279568E-1,-1.4650957E-1,-3.1646344E-1,8.400924E-2,-2.45691E-1,2.9515378E-2,-1.3612866E-1,-1.6169576E-1,-4.087333E-1,1.322603E-1,-3.2608777E-1,1.7567405E-1,-3.3563066E-2,2.5481224E-1,1.4672492E-1,2.3160176E-1,-9.426954E-2,-3.4760812E-1,-1.3192704E-1,2.2284469E-1,-1.6001273E-3,-2.7565515E-1,-6.497802E-2,2.7758315E-1,-7.770433E-2,2.068838E-1,-1.2650478E-1,6.588173E-2,2.3107727E-1,6.669923E-2,-7.583541E-2],"split_indices":[28,29,29,29,29,29,24,28,28,29,29,21,28,29,28,23,28,26,26,21,18,28,27,29,19,27,29,28,26,23,26,27,28,28,26,0,22,0,25,26,28,25,24,28,27,29,27,27,23,29,28,20,29,25,23,26,25,0,26,28,0,26,21,25,26,26,27,27,23,27,19,0,0,26,18,28,23,28,28,26,25,27,24,22,19,23,24,29,29,22,27,27,27,28,25,26,27,28,27,24,20,0,25,27,26,27,24,0,25,26,0,0,26,27,0,0,24,0,27,0,0,0,0,0,0,0,0,0,0,0,0,0,0,0,0,0,0,0,0,0,0,0,0,0,0,0,0,0,0,0,0,0,0,0,0,0,0,0,0,0,0,0,0,0,0,0,0,0,0,0,0,0,0,0,0,0,0,0,0,0,0,0,0,0,0,0,0,0,0,0,0,0,0,0,0,0,0,0,0,0,0,0,0,0,0,0,0,0,0,0,0,0,0],"split_type":[0,0,0,0,0,0,0,0,0,0,0,0,0,0,0,0,0,0,0,0,0,0,0,0,0,0,0,0,0,0,0,0,0,0,0,0,0,0,0,0,0,0,0,0,0,0,0,0,0,0,0,0,0,0,0,0,0,0,0,0,0,0,0,0,0,0,0,0,0,0,0,0,0,0,0,0,0,0,0,0,0,0,0,0,0,0,0,0,0,0,0,0,0,0,0,0,0,0,0,0,0,0,0,0,0,0,0,0,0,0,0,0,0,0,0,0,0,0,0,0,0,0,0,0,0,0,0,0,0,0,0,0,0,0,0,0,0,0,0,0,0,0,0,0,0,0,0,0,0,0,0,0,0,0,0,0,0,0,0,0,0,0,0,0,0,0,0,0,0,0,0,0,0,0,0,0,0,0,0,0,0,0,0,0,0,0,0,0,0,0,0,0,0,0,0,0,0,0,0,0,0,0,0,0,0,0,0,0,0,0,0,0,0],"sum_hessian":[1.1517393E4,8.729388E3,2.7880054E3,3.3293813E3,5.400006E3,1.4781726E3,1.3098326E3,2.0875168E3,1.2418645E3,2.1705757E3,3.2294304E3,9.619831E2,5.161896E2,3.0208874E1,1.2796238E3,7.914869E2,1.2960302E3,5.865802E0,1.2359987E3,5.2481726E2,1.6457584E3,8.139159E2,2.4155144E3,4.375655E2,5.244176E2,2.6700186E2,2.491877E2,2.1884834E1,8.324039E0,1.2699059E3,9.717936E0,8.874389E1,7.02743E2,4.3408023E2,8.619499E2,1.5249346E0,4.3408675E0,1.9238265E0,1.2340748E3,2.89497E2,2.3532024E2,1.4737477E3,1.7201062E2,7.318538E2,8.206207E1,7.502585E2,1.665256E3,2.0509108E2,2.3247443E2,2.3900513E2,2.8541248E2,2.2129901E2,4.5702847E1,2.365141E2,1.2673588E1,5.4090023E0,1.6475832E1,2.6526186E0,5.671421E0,5.074405E1,1.2191617E3,4.82274E0,4.895196E0,7.345401E0,8.139848E1,9.486149E0,6.9325684E2,1.4160579E2,2.9247443E2,6.3772253E2,2.2422733E2,2.1813962E0,2.159471E0,6.730586E0,1.2273442E3,1.0353172E1,2.7914383E2,2.2205076E1,2.1311517E2,9.639129E2,5.098348E2,1.10535446E2,6.1475185E1,1.5677434E2,5.750795E2,7.421487E1,7.8472047E0,1.3101964E2,6.1923883E2,2.763693E2,1.3888867E3,1.9496967E2,1.0121404E1,1.03448586E2,1.2902583E2,4.179599E1,1.9720914E2,2.8155035E2,3.862118E0,2.0839908E2,1.2899932E1,3.1655718E1,1.4047127E1,2.4764421E1,2.1174968E2,7.694773E0,4.9788146E0,1.651493E0,3.7575095E0,1.5392898E1,1.0829346E0,1.9851954E0,3.686226E0,6.14227E0,4.460178E1,1.95492E0,2.8678198E0,2.8033137E0,2.091882E0,3.9359736E0,3.4094272E0,7.949655E1,1.9019308E0,3.9904091E0,5.49574E0,6.919898E2,1.2670054E0,4.4105114E1,9.750068E1,6.620946E1,2.2626498E2,5.6297473E2,7.47478E1,2.1163268E2,1.2594661E1,3.3776536E0,3.3529325E0,1.2225841E3,4.76016E0,7.1632676E0,3.1899047E0,1.500138E2,1.2913002E2,1.1185451E1,1.1019625E1,2.1074117E2,2.3740058E0,8.826231E2,8.128981E1,3.4961276E2,1.6022205E2,8.061554E1,2.9919903E1,6.0315388E1,1.1597941E0,1.25310356E2,3.146398E1,5.675053E2,7.574217E0,6.807389E1,6.140975E0,1.6953721E0,6.1518326E0,9.230277E1,3.871686E1,5.3654034E2,8.2698524E1,1.699174E2,1.0645187E2,7.3207416E2,6.5681256E2,1.1433618E2,8.0633484E1,6.341807E0,3.7795966E0,1.649797E1,8.6950615E1,1.869348E1,1.1033235E2,1.4376931E1,2.741906E1,1.725108E2,2.4698324E1,3.997774E0,2.7755258E2,1.2678733E0,2.5942447E0,1.570584E2,5.134069E1,2.153275E0,1.0746657E1,9.385005E0,4.662122E0,4.580101E0,2.0184322E1,1.5061745E2,6.1132236E1,1.5958544E0,6.098919E0,2.5853884E0,2.393426E0,2.0672443E0,1.690265E0,1.4099878E1,1.2930192E0,1.5374827E0,2.1487432E0,2.534313E0,3.6079574E0,1.399129E0,1.4686909E0,1.0007745E0,1.0911075E0],"tree_param":{"num_deleted":"0","num_feature":"30","num_nodes":"213","size_leaf_vector":"0"}},{"base_weights":[1.02556415E-1,3.0712643E-1,-5.790506E-1,6.5075386E-1,1.200281E-1,-2.319143E-1,-1.0352855E0,4.5121658E-1,1.0204583E0,-1.2691267E-1,2.9515803E-1,-1.2527552E-2,-8.458356E-1,-3.190424E-1,-1.0544819E0,9.273252E-1,1.9318075E-1,1.9622979E-1,1.0249562E0,-4.943885E-1,-1.9864717E-2,5.722472E-1,1.2121278E-1,-2.5535095E-1,2.6611146E-1,-8.7761164E-1,8.2291025E-1,-5.341212E-1,1.9535573E-1,-1.0631496E0,-1.2578651E-1,3.1089303E-1,1.0203702E0,-2.9592878E-1,5.42406E-1,6.311469E-1,-2.1962786E-1,3.8099188E-1,1.029928E0,-2.1776575E-1,-9.296477E-1,2.232701E-2,-8.5701674E-1,-6.7189485E-2,7.30736E-1,5.9805155E-1,-1.2921111E-1,3.60377E-2,-4.8030788E-1,5.081281E-1,6.5082265E-3,-8.9784265E-1,2.7584097E-1,1.002919E0,-4.4498254E-2,7.3707424E-2,-7.5511205E-1,-1.936542E-1,6.4210397E-1,-8.2906634E-1,-1.0725222E0,1.5027301E-1,-7.958217E-1,1.4698392E-1,8.823854E-1,-8.4580755E-4,1.0377967E0,-4.9587622E-2,-8.444133E-1,6.5999085E-1,-2.4126351E-1,-4.611303E-1,9.30416E-2,1.0378981E0,-2.617573E-1,9.666489E-1,1.0576298E0,-2.7403468E-1,7.2444767E-1,2.345833E-1,-1.070289E0,1.2014405E-1,-2.9966822E-1,8.8226074E-1,-9.871436E-1,3.977458E-1,-9.200062E-1,8.47719E-1,-7.313459E-2,-3.0667776E-1,8.201666E-1,3.569936E-1,-2.691606E-1,-5.4226387E-2,3.860591E-1,-1.8202817E-1,-6.507449E-1,-9.80929E-1,5.569097E-1,-2.134043E-1,4.8867086E-1,-7.367949E-1,-9.990188E-1,-7.255755E-1,7.351372E-1,-5.320773E-1,3.9441106E-1,-9.567474E-1,-4.666523E-1,5.9169996E-1,-7.020769E-1,9.649239E-1,5.037902E-2,5.803594E-2,-9.792618E-1,-3.3086988E-1,3.4646425E-1,3.1178474E-1,-6.756472E-1,-1.0144947E-1,9.685361E-1,6.183585E-1,-4.692501E-1,-3.2155283E-2,1.0521657E0,2.4062833E-1,-2.9554647E-1,-5.824742E-1,-1.051017E0,7.022499E-1,-1.2705681E0,-1.0660712E-1,-1.5197674E0,-1.0605317E0,7.3572785E-1,1.0600715E0,-6.2466598E0,4.5800798E-2,-4.5924434E-1,1.3204485E0,-2.0097247E-1,8.7519675E-1,-7.2904897E-1,-1.0899397E0,1.712035E-1,1.8463379E-1,-6.3188714E-1,-1.2291672E0,-1.4805105E-1,3.7374544E-1,1.0380138E0,-1.0863049E0,6.7302454E-1,1.5657945E-1,7.2395784E-1,3.2497486E-1,-1.0538425E0,4.8393255E-1,9.012652E-1,-6.8542314E-1,1.2533036E-1,-5.5466074E-1,7.209967E-1,1.0075474E0,-1.20396E-1,-3.564641E-2,7.906034E-1,-3.6643125E-2,-7.7260345E-1,-1.3451785E-1,7.447046E-1,9.271185E-1,2.4507653E-2,-3.1747007E-1,4.5747828E-1,-4.0822375E-1,-7.379077E-1,-3.2632637E-1,6.2156045E-1,-1.1245223E-1,-8.91855E-1,6.9466007E-1,-5.0876275E-2,-7.65653E-1,1.7129268E-1,-7.525346E-1,-1.0285416E0,1.771686E-1,8.516453E-1,6.262299E-1,-4.3276967E-3,-7.1041214E-1,8.14986E-3,-1.1811779E-1,-1.0985409E0,-2.324016E-1,8.003801E-1,6.641173E-1,-3.352524E-1],"categories":[],"categories_nodes":[],"categories_segments":[],"categories_sizes":[],"default_left":[true,true,true,true,true,true,true,true,true,true,true,true,true,true,true,true,true,true,true,true,true,true,true,true,true,true,true,true,true,true,true,true,true,true,true,false,true,true,true,true,true,true,true,true,true,true,true,true,true,true,true,true,true,false,false,true,true,true,true,true,false,true,false,true,true,true,true,true,true,true,true,false,false,false,true,true,false,true,true,true,true,true,true,true,true,true,true,true,true,true,true,true,true,true,true,true,true,false,true,true,true,true,true,false,true,false,true,false,true,false,true,false,false,true,false,false,true,false,false,false,false,false,false,false,false,false,false,false,false,false,false,false,false,false,false,false,false,false,false,false,false,false,false,false,false,false,false,false,false,false,false,false,false,false,false,false,false,false,false,false,false,false,false,false,false,false,false,false,false,false,false,false,false,false,false,false,false,false,false,false,false,false,false,false,false,false,false,false,false,false,false,false,false,false,false,false,false,false,false],"id":6,"left_children":[1,3,5,7,9,11,13,15,17,19,21,23,25,27,29,31,33,35,37,39,41,43,45,47,49,51,53,55,57,59,61,63,65,67,69,-1,71,73,75,77,79,81,83,85,87,89,91,93,95,97,99,101,103,-1,-1,105,107,109,111,113,-1,115,-1,117,119,121,123,125,127,129,131,-1,-1,-1,133,135,-1,137,139,141,143,145,147,149,151,153,155,157,159,161,163,165,167,169,171,173,175,-1,177,179,181,183,185,-1,187,-1,189,-1,191,-1,193,-1,-1,195,-1,-1,197,-1,-1,-1,-1,-1,-1,-1,-1,-1,-1,-1,-1,-1,-1,-1,-1,-1,-1,-1,-1,-1,-1,-1,-1,-1,-1,-1,-1,-1,-1,-1,-1,-1,-1,-1,-1,-1,-1,-1,-1,-1,-1,-1,-1,-1,-1,-1,-1,-1,-1,-1,-1,-1,-1,-1,-1,-1,-1,-1,-1,-1,-1,-1,-1,-1,-1,-1,-1,-1,-1,-1,-1,-1,-1,-1,-1,-1,-1,-1,-1,-1,-1],"loss_changes":[1.4049973E3,4.981776E2,3.6815955E2,2.0106848E2,2.1709337E2,1.7808347E2,1.3479126E1,2.1801404E2,3.3459473E0,8.193972E1,1.4147829E2,6.604885E1,1.918097E1,3.164717E0,7.7402344E0,3.547174E1,1.9711568E2,1.3015283E0,2.6536255E0,5.637677E1,5.703848E1,1.14802734E2,2.1566948E2,3.420753E1,2.8557915E1,8.230377E0,1.1408682E0,2.7117462E0,1.6689763E0,1.2366943E0,2.0024397E0,7.670496E0,9.641174E0,6.494561E1,6.2182755E1,0E0,3.4711725E-1,4.0194035E0,6.3153076E-1,1.5500536E1,3.0099747E1,4.8472813E1,1.8407188E1,8.990643E1,8.5402435E1,1.25217255E2,8.070036E1,7.229892E0,1.4849159E1,1.7634628E1,2.3467714E1,4.745697E0,3.5973637E0,0E0,0E0,1.4111493E0,4.0215588E-1,2.6192186E0,7.858939E-1,5.6141396E0,0E0,8.745431E-1,0E0,9.146207E0,1.6543999E0,3.216074E0,8.222473E0,2.3839106E1,7.451805E0,4.8662613E1,1.508243E1,0E0,0E0,0E0,4.9911656E0,2.0804797E2,0E0,1.6197554E1,9.387827E0,1.3273406E1,4.1589355E0,5.735607E1,5.035566E1,8.104515E-2,1.2676361E1,1.1439245E1,1.3668755E1,1.4997253E1,1.4207123E1,3.1823582E1,8.816504E1,4.5177975E1,1.07712524E2,1.1792369E1,9.152161E0,9.538405E0,3.6511383E0,0E0,1.3246452E1,1.03116E1,7.7397957E0,3.6326447E0,7.090759E-1,0E0,1.7829394E-1,0E0,4.295113E-1,0E0,9.26473E-1,0E0,7.5179064E-1,0E0,0E0,1.6916544E0,0E0,0E0,1.5667565E0,0E0,0E0,0E0,0E0,0E0,0E0,0E0,0E0,0E0,0E0,0E0,0E0,0E0,0E0,0E0,0E0,0E0,0E0,0E0,0E0,0E0,0E0,0E0,0E0,0E0,0E0,0E0,0E0,0E0,0E0,0E0,0E0,0E0,0E0,0E0,0E0,0E0,0E0,0E0,0E0,0E0,0E0,0E0,0E0,0E0,0E0,0E0,0E0,0E0,0E0,0E0,0E0,0E0,0E0,0E0,0E0,0E0,0E0,0E0,0E0,0E0,0E0,0E0,0E0,0E0,0E0,0E0,0E0,0E0,0E0,0E0,0E0,0E0,0E0,0E0,0E0,0E0,0E0,0E0,0E0,0E0,0E0],"parents":[2147483647,0,0,1,1,2,2,3,3,4,4,5,5,6,6,7,7,8,8,9,9,10,10,11,11,12,12,13,13,14,14,15,15,16,16,17,17,18,18,19,19,20,20,21,21,22,22,23,23,24,24,25,25,26,26,27,27,28,28,29,29,30,30,31,31,32,32,33,33,34,34,36,36,37,37,38,38,39,39,40,40,41,41,42,42,43,43,44,44,45,45,46,46,47,47,48,48,49,49,50,50,51,51,52,52,55,55,56,56,57,57,58,58,59,59,61,61,63,63,64,64,65,65,66,66,67,67,68,68,69,69,70,70,74,74,75,75,77,77,78,78,79,79,80,80,81,81,82,82,83,83,84,84,85,85,86,86,87,87,88,88,89,89,90,90,91,91,92,92,93,93,94,94,95,95,96,96,98,98,99,99,100,100,101,101,102,102,104,104,106,106,108,108,110,110,113,113,116,116],"right_children":[2,4,6,8,10,12,14,16,18,20,22,24,26,28,30,32,34,36,38,40,42,44,46,48,50,52,54,56,58,60,62,64,66,68,70,-1,72,74,76,78,80,82,84,86,88,90,92,94,96,98,100,102,104,-1,-1,106,108,110,112,114,-1,116,-1,118,120,122,124,126,128,130,132,-1,-1,-1,134,136,-1,138,140,142,144,146,148,150,152,154,156,158,160,162,164,166,168,170,172,174,176,-1,178,180,182,184,186,-1,188,-1,190,-1,192,-1,194,-1,-1,196,-1,-1,198,-1,-1,-1,-1,-1,-1,-1,-1,-1,-1,-1,-1,-1,-1,-1,-1,-1,-1,-1,-1,-1,-1,-1,-1,-1,-1,-1,-1,-1,-1,-1,-1,-1,-1,-1,-1,-1,-1,-1,-1,-1,-1,-1,-1,-1,-1,-1,-1,-1,-1,-1,-1,-1,-1,-1,-1,-1,-1,-1,-1,-1,-1,-1,-1,-1,-1,-1,-1,-1,-1,-1,-1,-1,-1,-1,-1,-1,-1,-1,-1,-1,-1],"split_conditions":[1.85E1,3.5E0,2.8E1,2.5E0,1.45E1,5E-1,5E-1,3.5E0,3.5E0,9.5E0,1.65E1,1.15E1,2.2E1,3.05E1,2.85E1,5E-1,1.45E1,1.4E1,5E-1,2.5E0,2.55E1,7.5E0,4.5E0,5.5E0,1.55E1,3.1E1,1.85E1,1.95E1,1.25E1,5E-1,2.05E1,2.05E1,2.5E0,4.5E0,1.55E1,1.8934408E-1,1.7E1,6.5E0,1.35E1,1.65E1,9.5E0,1.05E1,5.5E0,1.55E1,1.35E1,2.35E1,1.5E0,1.95E1,1.5E0,2.05E1,2.05E1,2.5E0,1.35E1,3.008757E-1,-1.3349476E-2,1.25E1,1.35E1,2E0,1.45E1,1.95E1,-3.2175666E-1,1.4E1,-2.3874652E-1,1.65E1,1.5E0,1.25E1,5.5E0,1.15E1,1.5E0,2.65E1,4.5E0,-1.3833909E-1,2.791248E-2,3.1136942E-1,1.85E1,8.5E0,3.1728896E-1,9.5E0,8E0,1.1E1,1.7E1,2.45E1,1.25E1,1.7E1,2.95E1,1.75E1,2.5E0,5.5E0,1.55E1,3.5E0,2.95E1,2.55E1,1.5E0,4.5E0,2.05E1,2.05E1,6.5E0,-2.942787E-1,3.5E0,1.45E1,2.45E1,2.25E1,4.5E0,-2.1767266E-1,1.35E1,-1.596232E-1,5E0,-2.8702423E-1,1.45E1,1.7751E-1,1.95E1,2.894772E-1,1.5113707E-2,1.75E1,-2.9377857E-1,-9.926097E-2,1.95E1,9.353542E-2,-2.0269416E-1,-3.0434841E-2,2.9056084E-1,1.8550755E-1,-1.4077504E-1,-9.646585E-3,3.1564975E-1,7.2188504E-2,-8.866394E-2,-1.7474225E-1,-3.153051E-1,2.1067497E-1,-3.8117045E-1,-3.1982135E-2,-4.5593023E-1,-3.1815952E-1,2.2071837E-1,3.1802145E-1,-1.873998E0,1.374024E-2,-1.377733E-1,3.961346E-1,-6.029174E-2,2.6255903E-1,-2.187147E-1,-3.2698193E-1,5.136105E-2,5.539014E-2,-1.8956615E-1,-3.6875018E-1,-4.4415317E-2,1.1212364E-1,3.1140417E-1,-3.258915E-1,2.0190737E-1,4.6973836E-2,2.1718736E-1,9.7492464E-2,-3.1615278E-1,1.4517978E-1,2.7037957E-1,-2.0562695E-1,3.759911E-2,-1.6639823E-1,2.1629901E-1,3.022642E-1,-3.61188E-2,-1.0693923E-2,2.3718102E-1,-1.0992938E-2,-2.3178105E-1,-4.0355355E-2,2.234114E-1,2.7813557E-1,7.3522963E-3,-9.5241025E-2,1.372435E-1,-1.2246713E-1,-2.2137232E-1,-9.789792E-2,1.8646814E-1,-3.373567E-2,-2.6755652E-1,2.0839803E-1,-1.5262883E-2,-2.2969592E-1,5.1387805E-2,-2.257604E-1,-3.085625E-1,5.315058E-2,2.554936E-1,1.8786897E-1,-1.2983091E-3,-2.1312365E-1,2.4449583E-3,-3.5435338E-2,-3.2956228E-1,-6.9720484E-2,2.4011405E-1,1.9923519E-1,-1.0057572E-1],"split_indices":[28,29,29,29,29,20,24,28,28,29,29,29,29,29,28,23,28,25,25,21,27,28,27,29,29,28,21,28,27,23,26,25,28,22,28,0,24,28,28,28,28,28,28,29,28,29,28,27,23,28,29,19,29,0,0,26,26,27,25,28,0,27,0,25,26,26,27,25,21,26,20,0,0,0,26,28,0,28,26,24,28,24,28,26,27,26,28,26,28,27,29,29,22,29,28,25,25,0,27,23,29,27,25,0,27,0,25,0,27,0,28,0,0,24,0,0,27,0,0,0,0,0,0,0,0,0,0,0,0,0,0,0,0,0,0,0,0,0,0,0,0,0,0,0,0,0,0,0,0,0,0,0,0,0,0,0,0,0,0,0,0,0,0,0,0,0,0,0,0,0,0,0,0,0,0,0,0,0,0,0,0,0,0,0,0,0,0,0,0,0,0,0,0,0,0,0,0,0,0],"split_type":[0,0,0,0,0,0,0,0,0,0,0,0,0,0,0,0,0,0,0,0,0,0,0,0,0,0,0,0,0,0,0,0,0,0,0,0,0,0,0,0,0,0,0,0,0,0,0,0,0,0,0,0,0,0,0,0,0,0,0,0,0,0,0,0,0,0,0,0,0,0,0,0,0,0,0,0,0,0,0,0,0,0,0,0,0,0,0,0,0,0,0,0,0,0,0,0,0,0,0,0,0,0,0,0,0,0,0,0,0,0,0,0,0,0,0,0,0,0,0,0,0,0,0,0,0,0,0,0,0,0,0,0,0,0,0,0,0,0,0,0,0,0,0,0,0,0,0,0,0,0,0,0,0,0,0,0,0,0,0,0,0,0,0,0,0,0,0,0,0,0,0,0,0,0,0,0,0,0,0,0,0,0,0,0,0,0,0,0,0,0,0,0,0,0,0,0,0,0,0],"sum_hessian":[1.0073987E4,7.748875E3,2.3251123E3,2.7308604E3,5.0180146E3,1.321289E3,1.00382336E3,1.7750496E3,9.558108E2,2.0822405E3,2.935774E3,9.7418225E2,3.4710675E2,2.6661606E1,9.771618E2,6.229797E2,1.1520698E3,5.4297667E0,9.50381E2,4.689169E2,1.6133236E3,1.131323E3,1.804451E3,5.2059064E2,4.5359158E2,3.410859E2,6.020829E0,1.8773666E1,7.8879385E0,9.6798254E2,9.179235E0,8.227063E1,5.407091E2,4.7998148E2,6.720883E2,2.4010122E0,3.0287542E0,7.876115E0,9.425049E2,2.876227E2,1.8129419E2,1.5368414E3,7.6482124E1,2.2482466E2,9.064983E2,6.2086237E2,1.1835886E3,2.2717227E2,2.934184E2,2.342517E2,2.1933989E2,3.3542435E2,5.661566E0,4.856716E0,1.1641133E0,5.183387E0,1.3590281E1,4.51927E0,3.3686688E0,4.07094E1,9.2727313E2,7.050217E0,2.1290185E0,6.491082E1,1.7359808E1,9.088021E0,5.3162103E2,3.3197278E2,1.4800871E2,5.8453955E2,8.75488E1,1.4409574E0,1.5877969E0,3.5911193E0,4.2849956E0,2.9790228E2,6.446026E2,2.720831E2,1.5539631E1,1.94682E1,1.6182599E2,1.1792354E3,3.5760608E2,4.921483E0,7.1560646E1,1.4584634E2,7.8978325E1,7.912913E2,1.1520698E2,1.2230465E2,4.985577E2,2.6419305E2,9.193956E2,1.812709E2,4.590136E1,1.07446175E2,1.8597221E2,6.8245244E0,2.2742717E2,1.5101839E2,6.83215E1,1.3261536E2,2.0280899E2,1.597889E0,4.063677E0,1.5660827E0,3.617304E0,6.635368E0,6.9549127E0,1.711595E0,2.8076746E0,1.771511E0,1.5971578E0,5.9833617E0,3.472604E1,1.8432736E0,5.2069435E0,5.4594654E1,1.0316165E1,1.3834404E0,1.5976369E1,3.7760954E0,5.311926E0,7.0284796E0,5.245926E2,1.5229543E2,1.7967735E2,6.694849E1,8.106023E1,5.726409E2,1.1898588E1,8.0186646E1,7.362147E0,2.3444123E0,1.9405833E0,2.949355E2,2.9667945E0,1.0005408E2,1.7202902E2,9.192498E0,6.3471327E0,1.1749211E1,7.71899E0,1.5942465E2,2.4013429E0,1.0867928E3,9.244245E1,4.915445E1,3.0845163E2,1.9510708E0,2.9704123E0,6.785345E1,3.7071984E0,8.470472E1,6.114162E1,7.5274873E0,7.1450836E1,1.0281515E2,6.884762E2,2.7600977E1,8.7606E1,9.889989E1,2.3404764E1,4.156749E2,8.2882805E1,1.3912822E2,1.25064835E2,6.2965796E2,2.897377E2,1.6547275E2,1.5798155E1,1.7759743E1,2.8141617E1,8.908279E1,1.8363388E1,5.0670483E1,1.3530174E2,1.5235638E1,2.1219154E2,1.324725E2,1.8545885E1,4.9236443E1,1.908506E1,1.286828E2,3.9325635E0,2.4526724E1,1.7828226E2,1.1373675E0,2.9263093E0,1.9266572E0,1.6906469E0,4.267687E0,2.6872258E0,1.6602256E0,1.1474491E0,4.7944846E0,1.1888767E0,3.5695095E0,1.637434E0],"tree_param":{"num_deleted":"0","num_feature":"30","num_nodes":"199","size_leaf_vector":"0"}},{"base_weights":[8.5794814E-2,2.5366274E-1,-5.0607175E-1,5.785903E-1,9.50941E-2,-1.8797342E-1,-1.0015231E0,3.829144E-1,9.854114E-1,1.5652375E-1,-4.012572E-1,-1.0162845E-2,-7.665662E-1,-5.404148E-1,-1.0395881E0,8.6402977E-1,1.5440331E-1,1.551495E-1,9.911864E-1,-2.4938764E-2,2.840305E-1,-4.0687338E-2,-9.982336E-1,-1.9540384E-1,2.0353632E-1,-7.9744196E-1,7.008682E-1,-7.1441036E-1,1.5771732E-1,-1.0473974E0,-1.0103149E-1,2.4131377E-1,9.792637E-1,-3.1264573E-1,4.0756693E-1,4.2139548E-1,-3.420664E-1,3.395261E-1,9.971089E-1,-1.6420004E-1,1.6801806E-1,5.3335863E-1,1.309127E-1,1.6668363E-1,-7.8558254E-1,-2.229281E0,-9.4098073E-1,1.10807605E-2,-4.0775815E-1,4.0336612E-1,5.5334806E-3,-5.9407836E-1,-9.417265E-1,-1.558734E-1,9.019797E-1,3.1048557E-2,-8.718991E-1,4.5354438E-1,-4.6140036E-1,2.3286922E-1,-6.603699E-1,-1.3739963E-1,4.5722649E-1,9.91135E-1,-7.223301E-1,1.0714043E-1,-5.6967914E-1,8.4131324E-1,2.4828047E-1,-2.4476294E-1,7.4003166E-1,9.5090675E-1,-1.9369909E-1,9.313689E-1,1.0264676E0,-6.5753065E-2,-8.997555E-1,2.8785336E-1,-4.0463609E-1,6.3918166E-2,6.473519E-1,-2.3417678E-1,3.7540656E-1,6.1734957E-1,-1.0380014E-1,-1.0221572E0,6.9609356E-1,-9.137693E-1,-2.6177285E0,-1.0494875E0,-5.594918E-1,1.1959295E-1,-2.342512E-1,-2.4573466E-1,-5.640057E-1,1.4533474E-1,7.185092E-1,-1.4088495E-1,4.304229E-1,-6.3411725E-1,3.421486E-1,-9.5252466E-1,-1.953298E-1,-3.06389E-1,5.484518E-1,-3.4214798E-1,-9.136949E-1,-7.856967E-2,9.8264694E-1,-8.2787216E-1,3.0205947E-1,7.9606634E-1,-1.5186615E-1,-2.7551922E-1,7.427411E-1,5.935599E-1,-4.0695348E-1,1.2207233E-2,1.0116019E0,-1.7469226E-1,-9.092519E-1,5.5603796E-1,-5.9957203E-2,4.1065127E-1,-6.498072E-1,-3.677036E-1,1.0690205E0,-1.4217416E0,3.7324688E-1,-7.832913E-1,6.755492E-1,1.0297344E0,-1.2856385E0,2.548445E-1,-2.1715729E-1,1.052281E0,-9.89437E-1,1.566883E-1,1.1305169E0,-1.24849126E-1,-7.411876E-1,3.0542704E-1,-6.534089E-1,7.791367E-1,4.743673E-2,1.8064621E-1,-7.16087E-1,7.3482245E-1,1.5474847E-1,-6.301301E-1,8.2502836E-1,-4.7221178E-1,4.8843333E-1,-1.2379513E0,-9.4362006E-2,9.672082E-1,-1.7226532E-1,9.1448593E-1,-1.0807408E0,2.9092568E-1,-1.0574465E0,5.843407E-1,3.997584E-2,-3.6665606E-1,1.1998211E0,-1.0087856E0,-1.9068827E-1,2.1324798E-1,-6.060829E-1,-4.6829674E-1,3.48809E-1,3.2598677E-1,9.2559105E-1,7.3405944E-2,-4.6723258E-1,6.780468E-1,-3.625822E-2,-3.3665946E-1,-7.609952E-1,-5.697671E-1,8.31098E-1,-9.6514726E-1,-1.637234E-1,2.2154598E-1,-4.5738E-1,6.988569E-1,-7.4087924E-1,-2.0801064E-1,8.631688E-1,1.8366707E-2,-4.7209758E-1,-9.3667036E-1,-7.183025E-2,2.8619438E-1,-6.851713E-1,1.1187775E0,2.9262373E-1,-5.3107053E-1,2.730794E-1],"categories":[],"categories_nodes":[],"categories_segments":[],"categories_sizes":[],"default_left":[true,true,true,true,true,true,true,true,true,true,true,true,true,true,true,true,true,true,true,true,true,true,true,true,true,true,true,true,true,false,true,true,true,true,true,true,false,true,true,true,true,true,true,true,true,true,true,true,true,true,true,true,true,false,false,true,true,true,true,true,false,true,true,true,true,true,true,true,true,false,false,false,true,true,false,true,true,true,true,true,true,true,true,true,true,true,true,false,false,true,true,true,true,true,true,true,true,true,true,true,true,true,true,true,true,true,true,true,true,false,false,false,true,false,false,false,false,false,false,false,false,false,false,false,false,false,false,false,false,false,false,false,false,false,false,false,false,false,false,false,false,false,false,false,false,false,false,false,false,false,false,false,false,false,false,false,false,false,false,false,false,false,false,false,false,false,false,false,false,false,false,false,false,false,false,false,false,false,false,false,false,false,false,false,false,false,false,false,false,false,false,false,false,false,false,false,false,false,false],"id":7,"left_children":[1,3,5,7,9,11,13,15,17,19,21,23,25,27,29,31,33,35,37,39,41,43,45,47,49,51,53,55,57,-1,59,61,63,65,67,69,-1,71,73,75,77,79,81,83,85,87,89,91,93,95,97,99,101,-1,-1,103,105,107,109,111,-1,113,115,117,119,121,123,125,127,-1,-1,-1,129,131,-1,133,135,137,139,141,143,145,147,149,151,153,155,-1,-1,157,159,161,163,165,167,169,171,173,175,177,179,181,183,185,187,189,191,193,195,-1,-1,-1,197,-1,-1,-1,-1,-1,-1,-1,-1,-1,-1,-1,-1,-1,-1,-1,-1,-1,-1,-1,-1,-1,-1,-1,-1,-1,-1,-1,-1,-1,-1,-1,-1,-1,-1,-1,-1,-1,-1,-1,-1,-1,-1,-1,-1,-1,-1,-1,-1,-1,-1,-1,-1,-1,-1,-1,-1,-1,-1,-1,-1,-1,-1,-1,-1,-1,-1,-1,-1,-1,-1,-1,-1,-1,-1,-1,-1,-1,-1,-1,-1,-1,-1,-1,-1,-1,-1],"loss_changes":[8.8274646E2,3.5655115E2,3.09214E2,1.8030371E2,1.41922E2,1.23119835E2,1.2907227E1,1.6853741E2,3.3775635E0,9.5817184E1,1.1031363E2,3.6319572E1,1.3305191E1,7.4738216E0,5.081848E0,3.519931E1,1.2326052E2,9.745835E-1,2.4836426E0,4.597205E1,9.277852E1,4.966423E1,1.1505722E1,2.1553158E1,1.6854975E1,7.538864E0,1.2311714E0,5.743389E0,2.573608E0,0E0,1.4512771E0,6.4767222E0,9.126862E0,3.961956E1,4.6479248E1,1.1434162E0,0E0,2.8255439E0,4.416504E-1,7.188879E1,4.9334747E1,4.9458313E1,1.347019E2,3.0741072E1,2.525027E1,1.6178856E0,7.11882E0,6.6870522E0,5.9954987E0,1.7137142E1,1.3437009E1,4.612335E0,1.1014099E0,0E0,0E0,1.8193252E0,5.781803E-1,2.6785464E0,1.5565602E0,1.2237239E0,0E0,3.7604961E0,6.1545906E0,8.280762E0,1.956749E-1,1.0540226E1,1.814148E1,5.0246902E1,1.039756E2,0E0,0E0,0E0,3.172894E0,5.2429703E1,0E0,4.2642754E1,2.1559143E1,6.544168E1,1.1633518E1,3.1701614E1,5.8796326E1,1.2116928E2,7.154862E1,2.5011635E1,3.473151E1,1.205048E1,2.5758252E0,0E0,0E0,9.81456E0,1.8671917E1,6.4183216E0,1.50694275E1,4.878476E0,4.13813E0,1.4875611E1,7.436352E0,1.1269937E1,6.421109E0,4.0008583E0,2.9073455E0,1.4072113E0,4.87609E-1,3.2983146E0,1.1537004E0,2.2139823E-1,6.424179E-1,1.4202816E0,1.1475754E-1,0E0,0E0,0E0,7.6762545E-1,0E0,0E0,0E0,0E0,0E0,0E0,0E0,0E0,0E0,0E0,0E0,0E0,0E0,0E0,0E0,0E0,0E0,0E0,0E0,0E0,0E0,0E0,0E0,0E0,0E0,0E0,0E0,0E0,0E0,0E0,0E0,0E0,0E0,0E0,0E0,0E0,0E0,0E0,0E0,0E0,0E0,0E0,0E0,0E0,0E0,0E0,0E0,0E0,0E0,0E0,0E0,0E0,0E0,0E0,0E0,0E0,0E0,0E0,0E0,0E0,0E0,0E0,0E0,0E0,0E0,0E0,0E0,0E0,0E0,0E0,0E0,0E0,0E0,0E0,0E0,0E0,0E0,0E0,0E0,0E0,0E0,0E0,0E0,0E0,0E0,0E0],"parents":[2147483647,0,0,1,1,2,2,3,3,4,4,5,5,6,6,7,7,8,8,9,9,10,10,11,11,12,12,13,13,14,14,15,15,16,16,17,17,18,18,19,19,20,20,21,21,22,22,23,23,24,24,25,25,26,26,27,27,28,28,30,30,31,31,32,32,33,33,34,34,35,35,37,37,38,38,39,39,40,40,41,41,42,42,43,43,44,44,45,45,46,46,47,47,48,48,49,49,50,50,51,51,52,52,55,55,56,56,57,57,58,58,59,59,61,61,62,62,63,63,64,64,65,65,66,66,67,67,68,68,72,72,73,73,75,75,76,76,77,77,78,78,79,79,80,80,81,81,82,82,83,83,84,84,85,85,86,86,89,89,90,90,91,91,92,92,93,93,94,94,95,95,96,96,97,97,98,98,99,99,100,100,101,101,102,102,103,103,104,104,105,105,106,106,107,107,108,108,112,112],"right_children":[2,4,6,8,10,12,14,16,18,20,22,24,26,28,30,32,34,36,38,40,42,44,46,48,50,52,54,56,58,-1,60,62,64,66,68,70,-1,72,74,76,78,80,82,84,86,88,90,92,94,96,98,100,102,-1,-1,104,106,108,110,112,-1,114,116,118,120,122,124,126,128,-1,-1,-1,130,132,-1,134,136,138,140,142,144,146,148,150,152,154,156,-1,-1,158,160,162,164,166,168,170,172,174,176,178,180,182,184,186,188,190,192,194,196,-1,-1,-1,198,-1,-1,-1,-1,-1,-1,-1,-1,-1,-1,-1,-1,-1,-1,-1,-1,-1,-1,-1,-1,-1,-1,-1,-1,-1,-1,-1,-1,-1,-1,-1,-1,-1,-1,-1,-1,-1,-1,-1,-1,-1,-1,-1,-1,-1,-1,-1,-1,-1,-1,-1,-1,-1,-1,-1,-1,-1,-1,-1,-1,-1,-1,-1,-1,-1,-1,-1,-1,-1,-1,-1,-1,-1,-1,-1,-1,-1,-1,-1,-1,-1,-1,-1,-1,-1,-1],"split_conditions":[1.85E1,3.5E0,2.8E1,2.5E0,4.5E0,5E-1,5E-1,3.5E0,3.5E0,1.45E1,1.25E1,1.15E1,2.2E1,3.25E1,2.85E1,5E-1,1.25E1,1.4E1,5E-1,1.75E1,1.65E1,1.75E1,2E0,2.65E1,1.55E1,2.5E0,4.5E0,1.95E1,1.65E1,-3.1421924E-1,1.65E1,5E-1,2.55E1,1.15E1,3.5E0,9E0,-1.0261992E-1,6.5E0,1.35E1,1.45E1,2.45E1,7.5E0,2.25E1,6.5E0,2.85E1,1.6E1,1.1E1,1.65E1,6.5E0,1.45E1,2.25E1,3.1E1,2.2E1,-4.6762023E-2,2.705939E-1,1.85E1,5E-1,8E0,2.15E1,9E0,-1.9811097E-1,2.35E1,1.7E1,5.5E0,4.5E0,4.5E0,1.5E0,2.5E0,9.5E0,-7.3428884E-2,2.2200951E-1,2.8527203E-1,1.85E1,8.5E0,3.0794027E-1,4.5E0,2.5E0,2.25E1,1.35E1,1.55E1,1.25E1,6.5E0,4.5E0,1.5E0,2.45E1,2.45E1,1.1E1,-2.741308E-1,-7.8531855E-1,5.5E0,1.55E1,5.5E0,2.55E1,2.8E1,5.5E0,1.25E1,2.75E1,5.5E0,2.45E1,9.5E0,1.35E1,2.95E1,1.1E1,2E0,1.3E1,5.5E0,2.95E1,1.5E0,1.15E1,-2.4836166E-1,9.061784E-2,2.3881991E-1,5E-1,-8.265577E-2,2.2282234E-1,1.7806798E-1,-1.2208605E-1,3.6621701E-3,3.034806E-1,-5.240768E-2,-2.727756E-1,1.6681139E-1,-1.7987162E-2,1.2319539E-1,-1.9494218E-1,-1.1031108E-1,3.2070616E-1,-4.265225E-1,1.1197407E-1,-2.349874E-1,2.0266478E-1,3.0892032E-1,-3.8569155E-1,7.645335E-2,-6.514719E-2,3.1568432E-1,-2.968311E-1,4.700649E-2,3.3915508E-1,-3.745474E-2,-2.2235627E-1,9.162812E-2,-1.9602267E-1,2.3374103E-1,1.423102E-2,5.4193866E-2,-2.148261E-1,2.2044675E-1,4.642454E-2,-1.8903904E-1,2.4750851E-1,-1.4166354E-1,1.4653E-1,-3.713854E-1,-2.8308602E-2,2.9016247E-1,-5.16796E-2,2.743458E-1,-3.2422227E-1,8.727771E-2,-3.1723395E-1,1.7530221E-1,1.1992753E-2,-1.09996825E-1,3.5994634E-1,-3.026357E-1,-5.720648E-2,6.3974395E-2,-1.8182488E-1,-1.4048903E-1,1.04642704E-1,9.779604E-2,2.7767733E-1,2.2021784E-2,-1.4016978E-1,2.0341405E-1,-1.0877467E-2,-1.0099784E-1,-2.2829857E-1,-1.7093015E-1,2.4932942E-1,-2.895442E-1,-4.911702E-2,6.64638E-2,-1.37214E-1,2.0965707E-1,-2.2226378E-1,-6.2403195E-2,2.5895065E-1,5.5100126E-3,-1.4162928E-1,-2.8100112E-1,-2.1549076E-2,8.5858315E-2,-2.055514E-1,3.3563328E-1,8.778712E-2,-1.5932116E-1,8.192382E-2],"split_indices":[28,29,29,29,19,20,23,28,28,29,27,29,29,29,28,23,28,27,25,26,29,24,28,28,29,19,24,28,26,0,23,24,27,28,27,24,0,28,28,21,26,28,29,25,24,29,28,25,23,29,